#ifndef  _PARAM_HH   
#define  _PARAM_HH   

float bias1[L2]={
		-0.502817,2.412454,-0.960504,-0.793117,-2.288620,0.251484,-2.016407,-0.539455,-0.275671,-0.709728,1.738873,0.994394,1.319137,-0.882419,1.128594,0.496001,0.771406,1.029439,-0.908763,-0.424318,0.862596,-2.655619,1.513328,0.553132,-0.045704,0.220508,-1.029935,-0.349943,1.100284,1.298022,2.696224,-0.073925
};

float bias2[L3]={
		-0.658553,-0.514234,-1.018042,-0.077855,0.382732,-0.034242,1.096347,-0.234216
};

float bias3[L4]={
		-0.347451,-0.581268
};

const float w1list[L1][L2]={
		{0.177426,-0.907298,1.139401,-0.870797,-1.165150,1.488252,-1.070753,0.208275,0.010500,1.883151,-1.173123,1.922942,-0.861226,0.947252,0.376426,-0.694568,0.672295,-0.674333,0.576591,-1.491258,2.383145,-1.315907,-0.744755,1.126636,-0.498032,-1.225435,1.188030,0.856831,-0.803410,-0.353994,0.625231,-0.739563},
		{-0.401781,0.051945,-1.234826,-0.578850,0.900827,1.895889,1.054452,0.976639,1.785871,-1.347759,1.943621,1.480515,1.910065,-0.155010,-1.099401,-0.149635,0.407462,0.031831,-0.208299,0.439392,0.944479,-0.461585,-0.826439,-1.079931,1.929532,0.844363,0.316943,-0.651026,-0.689550,-1.374951,-1.602058,1.543015},
		{-1.630198,0.729091,0.402342,-0.311553,0.465662,1.178780,-0.403177,0.356366,0.126912,-1.270485,-0.413619,1.867559,-0.268003,0.614079,0.298238,-0.435154,-0.769916,-0.635846,0.396007,0.166673,-0.912822,-0.068242,-0.098453,-1.147469,0.949421,-1.000215,0.920859,-1.034243,-0.455532,-0.643618,-1.104383,-1.292857},
		{0.462782,0.128983,-0.684810,0.056165,-1.536244,-0.179925,1.222445,0.706573,0.401989,0.969397,-0.747455,0.906045,0.802456,0.922207,1.326386,1.849264,0.539249,0.676433,-1.093062,0.635031,1.117016,1.713343,-0.663478,-0.437820,0.087551,-1.544771,0.318728,0.681594,0.017479,-2.223403,0.052165,0.267051}
};

const float w2list[L2][L3]={
		 {-0.039283,-1.540797,-0.725597,0.689818,-0.719604,1.364532,0.038631,0.370825},
		 {-1.168093,0.063262,-1.383364,1.301846,-0.812993,-0.689449,-1.656715,0.142062},
		 {0.523277,0.156507,-1.582938,-0.628088,0.274516,-0.652294,-0.985511,1.519995},
		 {-0.171546,0.232181,0.610379,-0.481027,-0.890915,-0.521189,-1.471835,1.719589},
		 {0.771791,-0.597316,-1.188859,2.303917,-1.157355,-1.843070,1.648135,0.929505},
		 {0.823504,-0.237922,-0.506816,-1.060016,-0.312292,-0.477974,0.164228,0.582225},
		 {2.163236,-1.424061,-0.596314,-0.135950,-0.157667,-0.479656,0.567290,-2.094603},
		 {1.336528,-0.493320,-0.052567,1.136891,2.256723,0.620358,-0.222675,0.123722},
		 {-0.369182,-0.542861,-1.936280,0.097725,-0.704700,0.698457,-0.353432,-0.130107},
		 {-0.239379,0.416050,0.188779,0.582954,0.943261,0.003771,-1.616474,0.093953},
		 {1.099660,-1.156182,0.523891,-0.399449,0.747188,0.931848,-0.291837,0.943046	  }	  ,
		 {0.655264,0.781198,0.088422,0.370056,-1.188945,0.339965,-0.761492,-2.739677	  }	  ,
		 {0.640132,1.494485,-0.310886,-1.306527,0.773253,-0.015682,0.857924,-0.569312	 },
		 {-1.616956,-2.069985,0.097400,1.658131,-1.183881,0.160928,1.141102,0.269904	}	  ,
		 {-0.024326,0.426259,0.399046,-0.118164,-2.659172,-0.190653,1.466579,-0.466846	} ,
		 {-0.738031,0.676908,-2.772593,-0.680178,0.606320,-0.394850,0.852552,-1.416906	} ,
		 {0.279925,-0.637437,1.955912,0.666383,-1.755891,-0.267734,-0.598654,0.868963	 },
		 {-0.098150,-0.397272,0.390093,-0.460720,0.450934,-1.128011,-1.115897,0.276872	} ,
		 {0.910179,-0.132881,-0.652409,-1.334258,-0.684011,0.280442,0.766663,-0.971105	 },
		 {0.317218,-0.297791,-0.390953,-1.346717,1.659551,-0.993124,0.356293,0.314817	 },
		 {0.786328,-0.309013,0.493742,0.693773,1.068509,0.841631,-1.768538,0.821586		  },
		 {-0.466419,-1.676004,-0.116104,-0.159573,-0.453386,-0.249459,0.355482,0.005293} ,
		 {-0.944446,1.152332,-2.030684,-0.133702,-0.687838,0.049495,0.814520,0.800565	 },
		 {-0.410050,1.079619,2.064493,1.077744,-1.214077,0.493837,0.058926,0.078260		 },
		 {-0.017020,-0.813364,-0.110541,-1.126826,-0.440923,0.643314,-0.185054,-0.39522}  ,
		 {0.379152,-1.466424,1.020173,-0.730678,-0.280355,-1.570623,-0.807648,-1.159420	} ,
		 {2.259309,0.521065,-0.692050,-0.384880,-0.364694,-0.206904,-1.446535,-0.085931} ,
		 {-0.042257,-0.575788,1.536377,0.094352,0.156704,0.880179,0.800298,0.194293		  },
		 {-0.955945,0.141953,0.286344,-0.042171,0.578521,-1.698106,-0.309114,0.875833	} ,
		 {-0.345982,-0.319328,0.608844,-0.286887,0.349654,0.387280,-0.233467,-0.115107	} ,
		 {-0.463596,0.691539,-1.045253,-0.061626,-0.764144,-2.255564,1.732721,0.457416	} ,
		 {0.481481,0.694749,1.211145,-0.107305,-1.437791,-1.022507,0.684501,-0.964612	 }
};

const float w3list[L3][L4]={
		{-0.782629,-0.468864},
		{-0.110389,-2.201441},
		{-1.054628,0.199300},
		{0.820248,-0.050604},
		{0.463130,-0.517519},
		{0.279096,-0.978830},
		{0.338904,-0.439190},
		{2.021044,0.181338}
};


/*
float bias1[L2]={-1.1225467920303345,-0.5253201723098755,0.8014744520187378,-1.078803539276123,0.7526521682739258,0.8947911262512207,1.030880331993103,-0.11566359549760818,0.8868575096130371,0.7529403567314148,0.0815008357167244,-0.7764682173728943,0.7573199272155762,0.700654923915863,0.9816205501556396,-0.7538471221923828,-0.8123699426651001,1.0642855167388916,-0.7657874822616577,-1.0403845310211182,0.27166444063186646,-0.9976863861083984,-0.9416283965110779,-1.0264735221862793,0.5003169775009155,-1.057175874710083,0.8024879693984985,-0.06931311637163162,0.7876960635185242,1.0516828298568726,-1.1551307439804077,-0.9914983510971069,1.115867018699646,-0.8172269463539124,0.751054584980011,-0.5702265501022339,-0.8541625142097473,1.0552011728286743,0.5897875428199768,-0.9063143730163574,-0.0014912269543856382,-0.8715770840644836,-0.2481270581483841,-1.0776419639587402,0.8115789294242859,0.8825179934501648,-0.6865957379341125,0.8269904851913452,0.7347946763038635,0.12292467802762985,0.4563320279121399,0.8172180652618408,-0.058201681822538376,-0.00186146458145231,1.0419872999191284,0.944339394569397,-0.919138491153717,0.6711363196372986,0.930547833442688,0.8000667691230774,-0.5643067955970764,0.45937785506248474,-0.688703179359436,-1.0188298225402832};
float bias2[L3]={0.46203604340553284,0.37419500946998596};

const float w1list[L1][L2]={{0.09915440529584885,-0.8309909701347351,0.13474726676940918,0.5200338363647461,0.48192429542541504,0.035555850714445114,0.051557619124650955,-0.28794270753860474,-0.4198712706565857,0.47878023982048035,-0.01150917075574398,0.20277462899684906,-0.08225031942129135,0.3318197429180145,-0.125244140625,0.27792811393737793,0.3145216703414917,-0.3707144260406494,-0.0437040850520134,0.16427592933177948,-0.395137220621109,0.2238987684249878,0.14374248683452606,0.13287387788295746,-0.11609049886465073,0.19251202046871185,-0.6004387140274048,0.24150680005550385,-0.26290208101272583,-0.040665119886398315,0.003040146781131625,0.4833458662033081,-0.3267051577568054,-0.24715998768806458,0.133119136095047,-0.13170768320560455,0.25504955649375916,0.31076404452323914,-0.03626742586493492,0.10338196158409119,0.20394128561019897,0.3194485604763031,-0.28020772337913513,0.076445572078228,0.04087008163332939,-0.04186327010393143,-0.448120653629303,0.26069989800453186,-0.05521703138947487,0.3642311692237854,0.26647427678108215,-0.3300744593143463,0.535096287727356,0.6776754856109619,0.24327489733695984,0.1575140506029129,-0.04243846982717514,-0.4964044988155365,-0.22224193811416626,-0.3914795517921448,-0.24925018846988678,0.224340558052063,-0.6668941974639893,-0.3923123776912689},
{0.29402482509613037,-0.9124258756637573,0.3868218660354614,0.15521517395973206,0.3627452254295349,0.1945621818304062,-0.05356447398662567,-0.7290803790092468,-0.40737491846084595,-0.06972579658031464,0.5093024373054504,-0.1072436198592186,0.5642536282539368,0.22090131044387817,0.5055398344993591,0.10796497017145157,-0.11692631989717484,0.04013124853372574,0.13325399160385132,0.21380500495433807,-0.1611955314874649,-0.2943866550922394,0.2821629047393799,-0.5286908149719238,-0.07214821875095367,-0.19923631846904755,-0.12820714712142944,0.05931665003299713,-0.13442353904247284,-0.2754851281642914,-0.11323124170303345,-0.3667425513267517,0.03932627663016319,0.3275429606437683,0.47407254576683044,-0.9340253472328186,0.1975119709968567,0.30425944924354553,-0.19112633168697357,-0.3640998601913452,-0.6373295187950134,-0.2897416055202484,-0.6274580955505371,-0.27683424949645996,0.3310238718986511,0.33827605843544006,-0.2314598709344864,0.20969133079051971,0.30090540647506714,0.18265189230442047,0.6124370694160461,0.02167748101055622,-0.06957324594259262,0.4615097939968109,-0.2425176203250885,0.09540935605764389,-0.2902863621711731,-0.3907780349254608,0.3408726751804352,0.09108509123325348,-0.7972047924995422,0.9296848177909851,-0.802964985370636,0.23137196898460388},
{-0.37352311611175537,0.28179872035980225,0.3858104348182678,-0.5339908003807068,0.0900442972779274,0.41252848505973816,0.4958907663822174,0.4973900616168976,0.1033104732632637,-0.2689152956008911,0.014870917424559593,-0.5497537851333618,0.30827853083610535,-0.06827765703201294,0.5602136850357056,-0.3666709363460541,-0.4393084943294525,-0.23005343973636627,-0.3604196608066559,-0.22145211696624756,-0.29811564087867737,-0.42761489748954773,-0.04393099993467331,0.19725771248340607,0.28327298164367676,0.1081341877579689,0.6643447279930115,-0.12907177209854126,-0.039714161306619644,-0.15272729098796844,0.016995809972286224,-0.512271523475647,-0.060260944068431854,0.07478131353855133,0.39070019125938416,0.4271097481250763,-0.3438448905944824,-0.16565744578838348,0.6141490936279297,0.25293394923210144,-0.32208627462387085,-0.20217138528823853,0.31227609515190125,-0.4444103538990021,0.31543442606925964,0.42581382393836975,-0.380502849817276,0.5807292461395264,0.014070669189095497,-0.4794534146785736,-0.2946072816848755,0.40890058875083923,0.36513784527778625,-0.5256085991859436,0.5445166826248169,0.5455231070518494,-0.15579883754253387,0.18869075179100037,0.34308308362960815,0.6005241274833679,-0.17468447983264923,-0.13289466500282288,0.4793927073478699,-0.1427803784608841},
{-0.25456106662750244,0.9773491621017456,0.299529492855072,0.251888245344162,0.07446911931037903,0.19960547983646393,-0.0041734897531569,0.46327346563339233,0.488626629114151,0.16968736052513123,-0.5416762828826904,0.17450395226478577,0.11985796689987183,-0.06186104193329811,0.32334813475608826,0.3375132381916046,0.2176358699798584,-0.22453539073467255,0.7033613920211792,0.3027912378311157,0.3514239192008972,-0.20568811893463135,-0.25031718611717224,-0.4173189699649811,0.07292021065950394,-0.10581216961145401,0.6590656638145447,0.28976449370384216,0.17516271770000458,-0.16585083305835724,0.26592984795570374,-0.10276421159505844,-0.2065814882516861,0.26086196303367615,0.17223313450813293,0.6362319588661194,-0.19731250405311584,0.2625041604042053,0.3410726487636566,-0.18610863387584686,-0.09226897358894348,0.1227460727095604,0.48164644837379456,-0.1789538860321045,-0.41541874408721924,-0.06111585721373558,0.7817159295082092,0.19583731889724731,0.13402779400348663,-0.38287922739982605,-0.8275179862976074,-0.06864684075117111,-0.46500736474990845,-0.3939872980117798,-0.2684434652328491,0.4617224633693695,-0.24161744117736816,0.578322172164917,0.16034111380577087,0.24599230289459229,0.7027877569198608,-0.9096449613571167,0.48795193433761597,0.18304197490215302}};

const float w2list[L2][L3]={{-0.4689616858959198,-0.4767073094844818},
{-0.37833964824676514,0.022839855402708054},
{0.6040470600128174,0.6315500736236572},
{-0.41051146388053894,-0.6404814124107361},
{0.6181333661079407,0.5410789251327515},
{0.39266183972358704,0.5167668461799622},
{0.428280770778656,0.6119735240936279},
{-0.10109279304742813,0.021177515387535095},
{0.6874445676803589,0.4756735861301422},
{0.6230390071868896,0.3775746822357178},
{0.1173565611243248,-0.11833798140287399},
{-0.5806930661201477,-0.630471408367157},
{0.5844029784202576,0.5395036339759827},
{0.2512100636959076,0.6177409887313843},
{0.49379339814186096,0.5373432636260986},
{-0.6176011562347412,-0.5000641942024231},
{-0.3841506540775299,-0.5539496541023254},
{0.45566579699516296,0.48201173543930054},
{-0.5290756225585938,-0.44343817234039307},
{-0.49623972177505493,-0.6636725068092346},
{0.20165085792541504,0.1148453801870346},
{-0.49979132413864136,-0.6255320906639099},
{-0.5090369582176208,-0.530059278011322},
{-0.4088982939720154,-0.5858308672904968},
{0.35558342933654785,0.5102614164352417},
{-0.46581774950027466,-0.5211271047592163},
{0.8065334558486938,0.46706101298332214},
{-0.24635440111160278,0.1712368130683899},
{0.5917474031448364,0.6263952255249023},
{0.40904301404953003,0.5923664569854736},
{-0.4242604076862335,-0.5671769380569458},
{-0.5024348497390747,-0.5641963481903076},
{0.42168480157852173,0.6133358478546143},
{-0.2648867666721344,-0.529242217540741},
{0.33836278319358826,0.5613265037536621},
{-0.4739691913127899,-0.023466341197490692},
{-0.584425151348114,-0.5758948922157288},
{0.4822394847869873,0.6085575222969055},
{0.3310735523700714,0.28702402114868164},
{-0.5098034739494324,-0.5074024200439453},
{-0.15460051596164703,0.031576965004205704},
{-0.36798739433288574,-0.6111109852790833},
{-0.2626047432422638,0.11659052968025208},
{-0.4526749849319458,-0.5236098766326904},
{0.525458037853241,0.46553167700767517},
{0.4760657548904419,0.6353740096092224},
{-0.4929998219013214,-0.30910512804985046},
{0.5883882641792297,0.5674290657043457},
{0.6220492720603943,0.6470704674720764},
{0.11523482203483582,-0.029681595042347908},
{0.3072708249092102,0.06090688332915306},
{0.49542486667633057,0.6723721027374268},
{0.016627812758088112,-0.07643172144889832},
{0.05909078195691109,-0.20803500711917877},
{0.4083706736564636,0.612116277217865},
{0.4871865510940552,0.5440035462379456},
{-0.569324254989624,-0.6282317042350769},
{0.5354588627815247,0.18616966903209686},
{0.322813481092453,0.4987541437149048},
{0.6255694031715393,0.5202617645263672},
{-0.4636342227458954,-0.2169896364212036},
{0.3186837434768677,-0.03358057513833046},
{-0.4077446460723877,-0.18266665935516357},
{-0.4635222256183624,-0.6030444502830505}};
*/
#endif         
