
const float w1list[L0][L1] = {
    {-0.887786,-1.980796,-0.347912,0.156349,1.230291,1.202380,-0.387327,-0.302303,-1.048553,-1.420018,-1.706270,1.950775,-0.509652,-0.438074,-1.252795,0.777490,-1.613898,-0.212740,-0.895467,0.386903,-0.510805,-1.180632,-0.028182,0.428332,0.066517,0.302472,-0.634322,-0.362741,-0.672460,-0.359553,-0.813146,-1.726283,0.177426,-0.401781,-1.630198,0.462782,-0.907298,0.051945,0.729091,0.128983,1.139401,-1.234826,0.402342,-0.684810,-0.870797,-0.578850,-0.311553,0.056165,-1.165150,0.900827,0.465662,-1.536244,1.488252,1.895889,1.178780,-0.179925,-1.070753,1.054452,-0.403177,1.222445,0.208275,0.976639,0.356366,0.706573,0.010500,1.785871,0.126912,0.401989,1.883151,-1.347759,-1.270485,0.969397,-1.173123,1.943621,-0.413619,-0.747455,1.922942,1.480515,1.867559,0.906045,-0.861226,1.910065,-0.268003,0.802456,0.947252,-0.155010,0.614079,0.922207,0.376426,-1.099401,0.298238,1.326386,-0.694568,-0.149635,-0.435154,1.849264,0.672295,0.407462,-0.769916,0.539249,-0.674333,0.031831,-0.635846,0.676433,0.576591,-0.208299,0.396007,-1.093062,-1.491258,0.439392,0.166673,0.635031,2.383145,0.944479,-0.912822,1.117016,-1.315907,-0.461585,-0.068242,1.713343,-0.744755,-0.826439,-0.098453,-0.663478,1.126636,-1.079931,-1.147469,-0.437820},
    {-0.498032,1.929532,0.949421,0.087551,-1.225435,0.844363,-1.000215,-1.544771,1.188030,0.316943,0.920859,0.318728,0.856831,-0.651026,-1.034243,0.681594,-0.803410,-0.689550,-0.455532,0.017479,-0.353994,-1.374951,-0.643618,-2.223403,0.625231,-1.602058,-1.104383,0.052165,-0.739563,1.543015,-1.292857,0.267051,-0.039283,-1.168093,0.523277,-0.171546,0.771791,0.823504,2.163236,1.336528,-0.369182,-0.239379,1.099660,0.655264,0.640132,-1.616956,-0.024326,-0.738031,0.279925,-0.098150,0.910179,0.317218,0.786328,-0.466419,-0.944446,-0.410050,-0.017020,0.379152,2.259309,-0.042257,-0.955945,-0.345982,-0.463596,0.481481,-1.540797,0.063262,0.156507,0.232181,-0.597316,-0.237922,-1.424061,-0.493320,-0.542861,0.416050,-1.156182,0.781198,1.494485,-2.069985,0.426259,0.676908,-0.637437,-0.397272,-0.132881,-0.297791,-0.309013,-1.676004,1.152332,1.079619,-0.813364,-1.466424,0.521065,-0.575788,0.141953,-0.319328,0.691539,0.694749,-0.725597,-1.383364,-1.582938,0.610379,-1.188859,-0.506816,-0.596314,-0.052567,-1.936280,0.188779,0.523891,0.088422,-0.310886,0.097400,0.399046,-2.772593,1.955912,0.390093,-0.652409,-0.390953,0.493742,-0.116104,-2.030684,2.064493,-0.110541,1.020173,-0.692050,1.536377,0.286344,0.608844,-1.045253,1.211145}
};

const float w2list[L1][L2] = {
    {0.370825},
    {0.142062},
    {1.519995},
    {1.719589},
    {0.929505},
    {0.582225},
    {-2.094603},
    {0.123722},
    {-0.130107},
    {0.093953},
    {0.943046},
    {-2.739677},
    {-0.569312},
    {0.269904},
    {-0.466846},
    {-1.416906},
    {0.868963},
    {0.276872},
    {-0.971105},
    {0.314817},
    {0.821586},
    {0.005293},
    {0.800565},
    {0.078260},
    {-0.395229},
    {-1.159420},
    {-0.085931},
    {0.194293},
    {0.875833},
    {-0.115107},
    {0.457416},
    {-0.964612},
    {-0.782629},
    {-0.110389},
    {-1.054628},
    {0.820248},
    {0.463130},
    {0.279096},
    {0.338904},
    {2.021044},
    {-0.468864},
    {-2.201441},
    {0.199300},
    {-0.050604},
    {-0.517519},
    {-0.978830},
    {-0.439190},
    {0.181338},
    {-0.502817},
    {2.412454},
    {-0.960504},
    {-0.793117},
    {-2.288620},
    {0.251484},
    {-2.016407},
    {-0.539455},
    {-0.275671},
    {-0.709728},
    {1.738873},
    {0.994394},
    {1.319137},
    {-0.882419},
    {1.128594},
    {0.496001},
    {0.771406},
    {1.029439},
    {-0.908763},
    {-0.424318},
    {0.862596},
    {-2.655619},
    {1.513328},
    {0.553132},
    {-0.045704},
    {0.220508},
    {-1.029935},
    {-0.349943},
    {1.100284},
    {1.298022},
    {2.696224},
    {-0.073925},
    {-0.658553},
    {-0.514234},
    {-1.018042},
    {-0.077855},
    {0.382732},
    {-0.034242},
    {1.096347},
    {-0.234216},
    {-0.347451},
    {-0.581268},
    {-1.632635},
    {-1.567768},
    {-1.179158},
    {1.301428},
    {0.895260},
    {1.374964},
    {-1.332212},
    {-1.968625},
    {-0.660056},
    {0.175819},
    {0.498690},
    {1.047972},
    {0.284280},
    {1.742669},
    {-0.222606},
    {-0.913079},
    {-1.681218},
    {-0.888971},
    {0.242118},
    {-0.888720},
    {0.936742},
    {1.412328},
    {-2.369587},
    {0.864052},
    {-2.239604},
    {0.401499},
    {1.224871},
    {0.064856},
    {-1.279689},
    {-0.585431},
    {-0.261645},
    {-0.182245},
    {-0.202897},
    {-0.109883},
    {0.213480},
    {-1.208574},
    {-0.242020},
    {1.518261}
};

const float bias1[L1] = {
    0.689818,1.301846,-0.628088,-0.481027,2.303917,-1.060016,-0.135950,1.136891,0.097725,0.582954,-0.399449,0.370056,-1.306527,1.658131,-0.118164,-0.680178,0.666383,-0.460720,-1.334258,-1.346717,0.693773,-0.159573,-0.133702,1.077744,-1.126826,-0.730678,-0.384880,0.094352,-0.042171,-0.286887,-0.061626,-0.107305,-0.719604,-0.812993,0.274516,-0.890915,-1.157355,-0.312292,-0.157667,2.256723,-0.704700,0.943261,0.747188,-1.188945,0.773253,-1.183881,-2.659172,0.606320,-1.755891,0.450934,-0.684011,1.659551,1.068509,-0.453386,-0.687838,-1.214077,-0.440923,-0.280355,-0.364694,0.156704,0.578521,0.349654,-0.764144,-1.437791,1.364532,-0.689449,-0.652294,-0.521189,-1.843070,-0.477974,-0.479656,0.620358,0.698457,0.003771,0.931848,0.339965,-0.015682,0.160928,-0.190653,-0.394850,-0.267734,-1.128011,0.280442,-0.993124,0.841631,-0.249459,0.049495,0.493837,0.643314,-1.570623,-0.206904,0.880179,-1.698106,0.387280,-2.255564,-1.022507,0.038631,-1.656715,-0.985511,-1.471835,1.648135,0.164228,0.567290,-0.222675,-0.353432,-1.616474,-0.291837,-0.761492,0.857924,1.141102,1.466579,0.852552,-0.598654,-1.115897,0.766663,0.356293,-1.768538,0.355482,0.814520,0.058926,-0.185054,-0.807648,-1.446535,0.800298,-0.309114,-0.233467,1.732721,0.684501
};

const float bias2[L2] = {
    -0.384645
};
