0.689818,1.301846,-0.628088,-0.481027,2.303917,-1.060016,-0.135950,1.136891,0.097725,0.582954,-0.399449,0.370056,-1.306527,1.658131,-0.118164,-0.680178,0.666383,-0.460720,-1.334258,-1.346717,0.693773,-0.159573,-0.133702,1.077744,-1.126826,-0.730678,-0.384880,0.094352,-0.042171,-0.286887,-0.061626,-0.107305,-0.719604,-0.812993,0.274516,-0.890915,-1.157355,-0.312292,-0.157667,2.256723,-0.704700,0.943261,0.747188,-1.188945,0.773253,-1.183881,-2.659172,0.606320,-1.755891,0.450934,-0.684011,1.659551,1.068509,-0.453386,-0.687838,-1.214077,-0.440923,-0.280355,-0.364694,0.156704,0.578521,0.349654,-0.764144,-1.437791,1.364532,-0.689449,-0.652294,-0.521189,-1.843070,-0.477974,-0.479656,0.620358,0.698457,0.003771,0.931848,0.339965,-0.015682,0.160928,-0.190653,-0.394850,-0.267734,-1.128011,0.280442,-0.993124,0.841631,-0.249459,0.049495,0.493837,0.643314,-1.570623,-0.206904,0.880179,-1.698106,0.387280,-2.255564,-1.022507,0.038631,-1.656715,-0.985511,-1.471835,1.648135,0.164228,0.567290,-0.222675,-0.353432,-1.616474,-0.291837,-0.761492,0.857924,1.141102,1.466579,0.852552,-0.598654,-1.115897,0.766663,0.356293,-1.768538,0.355482,0.814520,0.058926,-0.185054,-0.807648,-1.446535,0.800298,-0.309114,-0.233467,1.732721,0.684501
