0.370825
0.142062
1.519995
1.719589
0.929505
0.582225
-2.094603
0.123722
-0.130107
0.093953
0.943046
-2.739677
-0.569312
0.269904
-0.466846
-1.416906
0.868963
0.276872
-0.971105
0.314817
0.821586
0.005293
0.800565
0.078260
-0.395229
-1.159420
-0.085931
0.194293
0.875833
-0.115107
0.457416
-0.964612
-0.782629
-0.110389
-1.054628
0.820248
0.463130
0.279096
0.338904
2.021044
-0.468864
-2.201441
0.199300
-0.050604
-0.517519
-0.978830
-0.439190
0.181338
-0.502817
2.412454
-0.960504
-0.793117
-2.288620
0.251484
-2.016407
-0.539455
-0.275671
-0.709728
1.738873
0.994394
1.319137
-0.882419
1.128594
0.496001
0.771406
1.029439
-0.908763
-0.424318
0.862596
-2.655619
1.513328
0.553132
-0.045704
0.220508
-1.029935
-0.349943
1.100284
1.298022
2.696224
-0.073925
-0.658553
-0.514234
-1.018042
-0.077855
0.382732
-0.034242
1.096347
-0.234216
-0.347451
-0.581268
-1.632635
-1.567768
-1.179158
1.301428
0.895260
1.374964
-1.332212
-1.968625
-0.660056
0.175819
0.498690
1.047972
0.284280
1.742669
-0.222606
-0.913079
-1.681218
-0.888971
0.242118
-0.888720
0.936742
1.412328
-2.369587
0.864052
-2.239604
0.401499
1.224871
0.064856
-1.279689
-0.585431
-0.261645
-0.182245
-0.202897
-0.109883
0.213480
-1.208574
-0.242020
1.518261
