// 4 - 128 - 2
const float w1list[L0][L1] = {
	{1.712305,-0.792115,-1.045525,-1.084856,1.117305,-0.518900,-0.753704,0.137690,-0.206945,-0.678095,0.753991,1.065315,0.985318,0.766920,0.402626,-1.775888,1.669251,0.301989,0.608156,1.114962,1.433352,0.418398,0.435546,-0.599224,0.033090,-0.854161,-0.719941,-0.893574,-0.156024,1.049093,3.170975,0.189500,-1.348413,1.264983,-0.300784,-0.660609,0.209849,-1.240625,0.222463,-0.088376,0.098378,0.381416,0.067492,0.016338,0.284315,0.415401,-1.031482,-1.429991,-0.061638,-1.432735,0.087531,0.938747,0.607112,-1.048170,-0.860262,0.328301,-0.401298,-0.316655,0.596906,-0.987287,-0.401235,-0.800083,-1.043129,-0.857078          },
	{0.677462,0.051820,-0.879161,-0.231102,-1.638807,-0.733313,2.149575,-0.090244,0.731659,-0.065488,0.348169,0.663258,-1.104617,-0.030936,1.578865,-0.795501,-0.566440,-0.307691,0.269024,0.524918,1.267412,0.499498,-0.062053,1.259167,0.704111,-1.495679,2.526368,1.769921,-0.168214,0.377910,1.324359,-0.172201,0.730352,1.104578,-1.014826,-0.602332,0.921408,0.460814,0.923797,-0.132568,-0.289005,-1.998639,-1.146000,0.047066,0.824557,0.531178,-0.128242,-0.271772,0.217180,0.078211,1.404546,0.146441,-1.481246,-1.272558,1.518759,-1.171160,0.764497,-0.268373,-0.169758,-0.134133,1.221385,-0.192842,-0.033319,-1.530803         },
	{0.206691,0.531043,0.239146,1.397896,0.055171,0.298977,1.648504,-1.550014,-0.455825,1.426159,0.936129,0.678380,0.832651,0.327066,1.631597,0.377759,0.239867,0.158959,0.192864,-1.157017,0.770673,-0.130440,1.821915,-0.075650,0.420918,0.246602,-0.625557,0.992137,1.905064,-0.014777,-0.300479,-0.355029,-1.892362,-0.177813,0.250998,1.054758,0.960048,-0.416499,-0.276823,1.123905,-0.173464,-0.510030,1.392518,1.037586,0.018792,-0.593777,-2.011880,0.589704,-0.896370,-1.962732,1.584821,0.647968,-1.139008,-1.214401,0.870962,-0.877971,1.296150,0.616459,0.536597,0.404695,0.191451,0.880511,-0.454080,0.085952                  },
	{0.751947,0.562990,-1.194987,-0.500410,0.252804,-0.408015,1.774659,-0.393153,-0.162218,0.769430,0.330533,-0.145274,-0.756494,0.301514,1.039096,0.479095,-0.778184,1.736775,-1.446578,-1.582686,0.960557,0.225840,-0.549499,-1.098571,2.320800,0.117091,0.534201,0.317885,0.434808,0.540094,0.732424,-0.375222,-0.291642,-1.741023,-0.780304,0.271113,1.045023,0.599040,-0.340692,-1.263173,-2.777359,1.151734,-0.589229,-0.448465,0.131574,-1.405560,-0.349782,2.023472,0.505387,0.359249,-1.582494,2.243602,-1.422795,1.922325,-2.115056,1.405365,1.618054,-0.824409,0.422580,0.547481,-0.813794,-1.449118,-1.317717,0.541008           },
	{-0.085116,-0.564301,0.966768,0.508068,-0.755463,-1.201202,0.523262,-0.537583,0.099205,1.576299,0.502328,-0.862267,0.160661,-0.952645,1.608522,-0.561579,0.207271,0.307733,0.159250,-1.958549,-1.446421,-0.452350,0.319432,-0.137779,-0.957147,-1.348424,-0.401558,-0.468476,0.512836,-0.326318,0.602708,-0.594650,-0.255958,-0.348046,-0.782367,0.625119,-0.813596,-0.521641,-0.073120,-1.297380,-0.324935,-0.711306,-0.388154,-0.059928,-0.799914,-0.220076,1.308669,-0.025799,1.145262,0.346494,0.774161,-0.774459,0.104907,0.133913,-0.612626,-0.822828,-1.490265,1.496140,-0.972403,1.346221,-0.467493,-0.862493,0.622519,-0.631192 },
	{0.568459,-0.332812,0.480424,-0.968186,0.831351,0.487973,-0.919651,2.642936,0.540123,2.290467,1.600268,-0.188835,-0.412272,-0.403459,-1.830029,-0.695835,0.246766,1.525958,-0.772772,0.882057,-1.252593,-0.586320,-0.457641,0.371811,0.457310,0.962342,0.770837,0.243168,0.390365,1.588531,-0.510926,0.774728,-1.808144,0.411334,-0.483250,0.002571,1.040086,0.164644,0.885188,1.473765,0.389094,1.171041,-0.326561,-0.008210,-0.522619,1.042978,0.414091,-0.507234,0.154669,1.041568,-0.039268,-0.948933,0.131912,-1.980566,0.768771,-0.421328,-0.469311,0.875696,-1.365163,1.947099,-0.480242,-0.523251,1.021225,0.708695              },
	{2.451230,-0.211206,-0.120407,-1.479316,-0.332102,-0.721431,-0.448767,-1.744188,1.660608,-1.416603,-2.802203,-1.188424,-0.603840,-1.149554,1.098304,-0.137839,0.025386,0.610392,0.286013,0.978567,-1.109478,-0.547518,0.665967,-2.534554,-1.375185,0.500992,-0.480249,0.936108,0.809180,-1.198093,0.406657,1.201698,0.147434,-0.977465,0.879390,0.635425,0.542611,0.715939,-2.994613,0.880938,1.808132,0.436638,0.192729,0.696439,0.338225,0.651781,0.001471,-0.766705,-1.004323,-0.998192,-1.373043,-1.067742,1.761266,0.754096,-0.625027,-0.390393,0.112558,-0.655545,0.067517,0.777604,-0.035743,0.336016,0.886492,-0.272132          },
	{0.284791,-0.309378,-0.028529,-0.324730,-0.528870,0.173712,0.566545,0.146304,0.498727,-0.737932,-1.203735,0.417044,0.687881,0.049857,1.348036,0.907699,2.680571,-0.200809,-0.998849,-0.740137,-0.565498,0.476031,-2.158069,1.318551,-0.239297,-0.246794,-1.079343,-0.114226,0.013240,-0.121945,0.339059,-0.589632,-0.895816,0.548328,0.098667,0.197181,1.059027,-1.022564,-0.855240,1.257220,-1.482883,-1.309412,0.817862,0.238200,0.105232,-0.091659,0.031268,-0.092112,1.355443,-0.398148,-0.161374,1.794449,0.027510,2.232016,-0.104980,1.367415,-1.655344,0.153644,-1.584474,0.844454,-1.212868,0.283770,-0.282196,-1.158203         },
	{-1.619360,-0.511040,1.740629,-0.293485,0.917222,-0.057043,0.876727,-1.826911,-0.403188,0.949406,-0.163255,-0.086455,-0.430462,1.149379,0.297514,0.044022,0.643055,0.588225,0.212587,1.547032,-0.060288,0.278081,-0.642953,0.150115,1.587762,-0.643258,-1.133593,0.996760,-0.148766,0.096004,-0.045113,0.079122,0.850531,-0.839124,-1.011774,0.084968,-1.606440,-1.373054,1.866683,0.757468,-0.010056,1.238007,-1.040599,-0.315603,0.623454,0.890672,0.512917,-2.541239,-0.968082,0.477068,-0.355951,2.540232,0.926558,0.558082,-1.116950,-0.035297,0.241204,1.127784,0.881131,1.032989,-0.923912,1.412152,-1.380431,-0.535915           },
	{0.430771,-0.149892,-1.006037,-0.821550,-1.548254,0.531975,1.260569,-0.100394,-0.400349,-1.472323,0.913202,2.211304,-1.797456,-1.063433,-0.679593,-0.564318,0.227346,1.614250,1.008597,0.527597,-0.723929,-1.119628,-0.796775,1.548067,-0.061743,-0.446836,-0.183756,0.824618,-1.312850,1.414874,0.156476,-0.216344,0.442846,0.218397,-0.344196,-0.252711,-0.868863,0.656391,-0.531994,-0.956258,0.165864,1.329141,-0.048345,-0.608101,0.403896,1.936713,-1.451905,0.382203,0.205087,1.161534,0.990909,-0.186709,-1.684517,0.806564,-0.835193,-0.946740,1.148351,-0.910850,1.402845,0.335845,0.319118,0.307265,-1.638424,-1.776389       },
	{0.215553,0.568007,0.082611,-0.821535,0.018922,-0.082034,-0.957158,1.013972,-1.730276,0.588742,0.384323,1.009712,-1.005312,0.101407,2.171165,0.662074,0.100581,0.539161,0.086177,2.190898,0.983636,-0.085615,0.252331,-0.390798,1.209850,-1.406105,-1.604738,1.458715,2.153120,0.468305,0.112738,0.657268,-0.647054,0.171244,0.038909,0.626564,-1.557999,-0.507035,0.844996,-0.675594,-0.993361,2.042072,0.038118,-0.578918,-1.692370,0.729346,0.699136,-0.298760,-1.102230,-0.024549,-0.835856,-0.942094,-0.103213,-1.051390,0.246649,0.607993,-0.839632,-1.368245,1.561280,-0.940270,-0.659943,0.213017,0.599369,-0.256317             },
	{0.460794,-0.400986,-0.971171,1.426317,2.488442,1.695970,0.141807,1.833435,0.355704,-0.477286,0.466380,-0.094393,-0.983118,-0.898322,0.802052,-1.846532,0.604137,-1.629584,-2.121176,-1.838847,1.966764,-0.196234,0.086583,1.419255,0.934180,-1.391505,0.869006,0.184181,-0.341678,0.024291,1.279812,-0.885966,0.400886,-0.009657,-1.797165,-0.802253,0.193214,1.297342,1.001331,0.597212,-0.815276,1.801214,0.215240,-1.006366,-0.182905,0.896248,0.007617,0.886865,1.103694,0.400531,-0.857703,0.135455,0.045166,1.859346,-1.626322,-0.134822,-0.584094,0.335106,-2.437564,1.114925,0.013748,-1.844701,-0.361113,0.608962              },
	{-1.591448,0.003222,-1.057474,-0.555985,0.026738,0.183450,-0.470742,0.272796,0.817978,-0.278914,1.431568,1.462214,-0.428702,-0.637841,-1.664173,-0.126569,-0.363438,0.779051,-1.509662,-0.277391,0.968744,-0.730357,-0.762362,-1.446940,2.620574,-0.747473,-1.300347,-0.803850,-0.774295,-0.269390,0.825372,-0.298323,-0.922823,-1.451339,0.021857,0.042539,1.530932,0.092448,-0.099008,-1.050654,-0.305953,-0.438474,-0.370164,-0.959255,0.538330,-0.142445,-0.200353,-1.714046,0.493644,0.487015,-0.839129,0.990121,-1.364758,-0.021870,-0.271207,-1.317175,0.189703,1.702570,0.067634,-0.463022,0.447024,0.105720,0.027762,-0.425542  },
	{1.421976,0.456363,-0.528671,-0.108004,-0.740867,-0.608291,-0.640726,-1.134312,0.777277,-0.291041,0.554128,-0.670126,-0.060362,-0.711041,0.719668,-0.248419,-0.730874,-1.641703,0.275667,-0.708385,-0.015779,-0.491730,0.954190,0.544145,0.447212,-0.616121,0.466290,1.714832,-0.832186,0.172339,-1.649217,1.398562,-0.397912,0.782579,-1.723228,1.797539,-0.356872,0.545657,0.150818,-0.255471,1.685792,-1.648046,0.298714,0.910646,-0.029856,-0.118171,-0.142688,-1.227636,0.038127,0.512718,0.068599,-0.272276,-0.489725,-0.279297,1.257744,-2.086635,0.040071,-0.327755,1.455808,0.055492,1.484926,-2.123890,0.459585,0.280058       },
	{1.390534,-1.641349,-0.155036,0.066060,-0.495795,1.216578,-0.338682,2.034763,1.054178,0.950834,0.559299,-1.063696,-0.431096,0.572751,0.677557,1.307184,-0.467441,-0.860153,0.859104,-0.809627,0.873312,1.199736,0.456153,-0.357579,0.041082,0.593466,0.010186,2.198296,-0.990671,-1.002669,-0.976895,-0.589580,-2.178931,-0.629650,-0.653285,0.078514,0.417801,-1.240216,0.900054,1.802242,-0.208285,1.574371,0.198989,1.988732,1.117283,-1.563905,0.018627,1.054325,0.030547,-0.036884,1.269765,-0.709854,0.017516,0.323626,-0.333791,-0.020129,0.775023,0.432838,-0.808718,-1.104124,-0.789102,0.001248,-0.159940,-0.831958            },
	{-0.598150,-1.520039,0.417854,-0.040019,-1.259787,0.028621,1.342622,-0.739936,1.315138,-0.323457,0.197828,0.097751,1.401523,0.158434,-1.141901,-1.310970,-1.532921,-1.711970,0.046135,-0.958375,-0.080812,-0.703859,-0.770784,-0.480845,0.703586,0.929145,0.371173,-0.989823,0.643631,0.688897,0.274647,-0.603620,0.708860,0.422819,-3.116857,0.644452,-1.913743,0.663562,-0.154072,1.193612,-0.098161,-0.886614,-0.147354,1.059806,0.026247,-0.114335,0.743554,0.210359,-0.005927,1.366060,1.555114,0.613326,-0.285959,1.496911,1.183120,0.718897,-1.216077,0.140672,-0.743672,-0.159012,0.240057,0.100159,-0.475175,1.272954           },
	{-1.696131,0.730184,-1.857483,0.382598,-0.886904,0.878304,0.086453,0.247706,-1.018279,-0.654570,0.207217,0.583570,2.929096,0.222858,0.976038,-1.556934,-1.329892,-0.355495,-1.197428,1.486399,-0.410219,1.382182,1.486782,0.042780,0.501800,-0.056099,0.538437,0.483342,-0.123650,0.504970,1.723696,0.713016,0.325800,0.124770,-1.012673,-1.027297,0.323357,-1.369391,-0.766328,1.281511,1.914230,-1.665956,1.626650,-0.211438,-0.015005,-0.113412,1.080544,-1.607677,0.456164,-0.944870,0.570789,1.542796,-0.000417,0.374155,0.409552,-0.799594,1.511639,1.706468,0.701783,0.073285,-0.461894,-0.626490,1.710837,1.414415               },
	{-0.063661,-1.579931,-2.832012,-1.083427,-0.130620,1.400689,-0.651656,0.504815,1.303181,0.128536,-0.142448,-1.308764,-1.202475,0.416100,-0.200908,0.122531,-0.047278,0.664144,-0.784687,-0.335581,1.896182,-0.799786,-0.281575,-0.589387,0.444781,1.022392,-0.498212,-0.431414,-0.278982,0.529834,-0.739395,-0.375960,-2.372194,-1.381745,-0.112444,0.897864,0.295076,-1.098768,-1.400256,0.174680,-1.652804,1.065927,0.063896,-1.607320,-0.965954,-0.724311,-0.773193,-1.489933,-0.874663,-0.684402,-0.711286,1.127957,0.104828,-0.993257,-0.334622,-0.879557,-0.300007,0.875509,0.252271,2.285601,0.375927,-0.913594,0.809741,1.079931 },
	{1.094167,-1.094241,-0.147637,1.131812,-1.684729,-0.499417,-1.426938,-0.932570,-1.012457,1.250570,-0.234538,-0.863356,-1.035606,0.141667,-0.011136,1.344074,0.500017,-1.431798,-0.628981,1.070073,-0.621083,1.734572,-1.098289,0.572613,-0.861216,-0.509595,1.098582,-0.127067,0.813452,0.473291,0.753866,-0.888188,-0.221574,0.424253,-0.849073,1.629500,-0.777228,-0.300004,-1.006559,-2.143308,1.796919,-0.204339,-0.447915,-0.198715,1.419864,-0.965107,0.679568,-0.423788,-0.596671,0.567058,0.988241,-0.513903,-0.768849,-1.169096,1.103504,-0.575256,-1.849131,1.409952,-1.369859,0.779461,0.183429,0.287915,-0.584375,0.365591   },
	{-1.667780,0.588038,1.557010,0.884027,-2.019540,-0.984209,-0.187795,0.486937,-0.106653,-0.493214,0.595300,1.164152,-0.232294,0.728930,-2.579051,-0.937509,-0.321259,-0.488566,0.332798,1.013751,0.506669,-0.622225,-1.522768,0.556964,-1.838177,0.653037,-0.188449,-1.175835,0.287257,-0.002876,-0.036597,-0.084223,0.419524,0.924434,0.496615,1.012133,-0.044140,1.618459,0.571110,-0.543694,-1.093895,0.205797,-1.306522,-0.973376,0.239087,-0.607887,-0.933316,-0.034475,0.072678,-0.205834,-0.377547,0.854643,0.342427,-0.223426,2.464322,0.193832,1.132005,-0.560981,-1.362941,-0.791757,-0.268010,-0.496608,1.336386,-0.120041     },
	{0.461469,-0.046481,-0.433554,0.037996,1.714051,-0.767949,0.766990,-1.026007,-0.459626,0.003583,0.326375,1.483129,-0.050083,-0.843616,0.650042,-0.364170,0.238682,-0.116222,-1.943457,0.508299,0.583368,0.926605,1.800463,-1.195104,0.516507,0.409295,-0.419082,0.397106,0.499647,-1.218684,0.246223,-0.917984,-0.651856,-1.774745,-0.473361,-0.203571,0.549857,0.000900,-1.542288,0.862148,-0.118587,0.488371,0.965936,1.422605,1.961227,-0.072239,0.311124,-1.078361,1.061600,-1.184887,-1.805252,0.830386,-0.521697,0.777607,0.408075,-1.630003,-2.719679,-1.096602,0.016491,-1.221776,-0.652761,-1.458941,0.169878,0.090826          },
	{-0.481393,1.397065,1.497715,0.565267,-1.799771,-1.104690,0.407130,-0.628558,-0.487091,0.898967,0.510875,1.314154,-0.429209,1.375225,-0.554131,1.499491,0.105835,-0.860510,-1.631220,-0.301472,-0.256233,0.857662,-0.110591,-0.432432,1.077037,-0.224827,-0.576242,0.574609,-0.489828,0.658802,-0.596917,-0.222959,0.152177,-0.374126,-0.013451,0.815472,0.410602,0.480970,-0.635430,0.852830,0.669562,1.004419,-0.726366,-0.172459,0.633534,-0.608815,-0.226122,1.925806,1.951761,1.239941,0.938585,-1.019251,0.512562,-0.359117,-1.058572,-0.509006,0.115665,-0.547356,-0.550799,0.792041,0.144106,0.233458,0.111872,-0.675703         },
	{-1.370572,0.310565,-0.507037,-2.010782,-0.392567,-1.092218,0.698650,0.521625,0.496893,-0.665042,0.731552,0.319650,-0.409855,-0.453337,0.892708,-0.473604,0.303656,1.033957,1.909343,1.663873,0.900823,-1.505911,-0.689048,-0.548087,1.653150,-0.699318,0.386166,0.100867,-0.935127,0.381824,0.398296,-1.255775,1.222878,-2.086510,-0.590757,0.971970,-1.193258,0.350266,-1.296360,-0.093024,-2.313773,-0.842572,-1.542921,-0.401764,-0.415231,-0.673664,0.797913,-0.886880,0.634387,1.629276,0.139064,-0.857670,-1.249339,-0.709785,0.704643,0.155591,0.936795,0.770331,0.140811,0.473488,1.855246,1.415656,-0.302746,0.989679          },
	{0.585851,1.136388,0.671617,-0.974167,-1.619685,0.572627,1.902618,-0.775664,-0.188090,-1.035748,1.177830,-2.305167,-2.263660,0.375020,-0.082344,-0.479623,-0.301095,0.536988,-0.413804,-1.096925,-0.927363,0.888339,-0.524742,-1.385278,0.102178,0.504995,1.328961,0.217903,-0.659711,0.474008,0.727175,-0.038905,-0.044599,0.260133,-0.069856,0.250114,-1.021913,-1.150438,-0.836111,0.642211,0.258798,1.040239,-0.186691,-1.143641,1.144554,-0.018767,1.283455,0.597946,2.188619,-0.219773,0.900724,0.891364,-0.555126,-0.172482,-1.461738,-1.548796,0.126569,0.793007,0.638024,0.340025,0.863017,-0.589698,-0.272533,0.737522         },
	{0.433119,-0.210189,1.320794,-1.292001,-0.518679,-0.283398,0.816535,0.002385,-1.261492,0.514004,1.087546,0.739305,0.619155,-1.874313,-0.899886,0.482081,-0.054888,0.522558,-1.266343,-0.061495,-1.389781,-1.953679,0.295779,0.842589,0.245616,-0.032996,-1.562014,1.006107,-0.044045,1.959562,0.942314,-2.005126,0.755050,-1.396535,-0.759495,-0.250757,-0.094062,0.397565,-1.022855,-1.150692,0.600605,-0.013250,0.174373,-2.193683,-0.177137,-0.890729,-0.920626,0.921935,-1.095671,-1.092897,-0.331011,0.450289,-0.884015,1.234144,1.449848,-0.881447,-0.245082,-0.778675,-1.685382,0.303011,0.733595,2.011864,-0.897409,1.336235     },
	{1.342354,0.197853,0.602163,0.873273,1.974100,0.477809,-0.060138,-0.866169,0.305321,1.024165,0.244610,-0.779923,0.089076,-0.129153,0.264739,-1.661848,0.550789,0.595423,0.444853,-0.003763,-1.805936,-0.019323,1.060715,-0.860129,-1.989269,-1.540558,0.314026,0.372876,0.886293,-0.055259,-1.500328,-0.818504,0.818839,0.140496,0.649830,0.434789,-0.204961,-0.174007,1.857102,0.414674,-0.128588,0.455420,0.222906,-2.157356,0.650084,1.820939,-0.780280,1.454036,-0.256870,0.293471,1.070360,-0.720001,1.242494,-1.214217,-0.875155,-0.593520,0.662005,-0.340874,-1.519974,-0.216533,-0.784221,0.731294,-0.343235,0.070774            },
	{-0.405472,0.433939,-0.183591,0.325199,-2.593389,0.097251,0.413914,-0.199280,0.669392,0.738607,1.304214,0.104812,-1.913801,-2.285499,-1.601841,-0.037907,-0.157305,0.276240,-0.625246,-0.736491,0.555048,0.655924,-0.256650,-0.038477,0.404314,0.504344,-1.143981,-0.719574,-1.230546,-0.506907,0.812334,0.546272,-1.098098,0.512267,0.085843,-0.493927,-1.406460,-0.174823,0.679944,-2.163098,-0.396123,2.254284,0.672637,0.259833,-0.737185,-0.678330,-0.083288,1.602864,0.465589,-0.872158,1.176787,-0.292594,1.697346,-0.566603,-1.003266,0.174630,0.982327,1.037445,0.159192,-0.988097,-0.505341,-2.018282,-0.913122,-0.178457      },
	{0.389002,-0.339454,-0.056979,-0.396185,0.751025,-0.899113,0.837548,1.960881,0.472790,-0.527092,-0.536270,1.209837,-1.126589,-0.953804,-1.164448,-1.278514,-1.044816,0.789905,1.102283,-0.697073,0.207334,0.759157,0.100564,-0.954943,-1.470402,1.010428,0.496179,0.576956,-1.107647,0.234977,0.629000,0.314034,-0.745023,1.012261,-1.527632,0.928742,1.081056,1.572330,-0.342492,-0.999430,0.793880,-0.699215,0.043996,-0.317462,-0.902072,0.320999,-1.392016,0.592206,-0.966931,-1.731731,-0.050107,0.431634,0.576935,0.818354,-2.353640,-1.005144,0.106652,1.519003,0.783745,1.901340,-0.524939,0.274417,-1.099971,-0.404352          },
	{-0.735296,-0.633989,-0.393449,0.002718,0.022213,0.543453,0.139988,-0.344046,-0.522579,-0.307132,-0.449037,0.490971,0.865525,1.274045,-0.797703,0.469372,-1.394680,0.373175,1.082672,-0.149590,1.072636,-1.138568,-0.888645,-0.135810,1.022210,-0.417429,-0.453553,-0.991628,0.202881,1.246695,0.700680,0.696651,-0.206974,-0.563309,0.677246,-0.031911,-0.173608,0.898241,-0.197787,-0.837776,0.909189,0.080720,-1.037029,-1.112906,0.095412,2.337410,-0.392821,-0.336274,1.523771,-0.057281,-1.448467,-1.572796,1.226664,0.666355,0.826126,-0.057757,-0.726712,-0.217163,0.136031,-0.838311,0.561450,-1.259596,-0.332759,-0.204008     },
	{-0.691020,-2.205505,0.447870,-0.755751,1.325708,-0.341982,-0.541360,0.091522,1.053440,-0.563408,1.014738,1.440304,0.990323,1.626431,1.292646,1.514882,1.604326,0.208070,-0.429224,-2.262244,-1.322733,-0.448283,-0.381735,-0.152794,-1.000760,-1.595778,-0.130223,-0.189418,-0.807554,-0.742152,-0.940157,-0.396524,-0.856303,1.259875,0.240997,-0.972318,-0.280448,-1.180286,1.012168,1.384187,1.252002,-1.144693,-0.091267,-0.401571,0.562013,-1.007910,-0.675892,-0.413217,0.153288,0.694129,-0.328728,0.663965,0.822076,-0.213215,-1.245658,-1.171190,0.591727,-0.476224,-1.712629,0.612952,0.129555,-1.405967,1.179420,0.836636    },
	{0.138745,-1.274319,-1.402331,-0.307068,-1.713915,0.405080,-1.410823,0.164913,-0.288131,0.711785,-0.937948,0.273729,-1.394840,0.795550,-0.114962,0.495851,-1.320525,0.499084,0.306203,0.363698,0.312634,-0.193464,1.241299,-0.155898,-0.739169,-0.058726,-0.950518,-0.463996,-0.177247,-0.379554,0.199397,1.945761,0.570950,1.072301,-0.503709,-0.587016,-0.378178,0.852889,-2.148118,-1.033165,0.102336,-0.224092,1.967730,0.447683,-0.662191,-1.577607,-0.340560,-1.303220,0.466751,0.161106,0.320032,2.079177,-0.907466,-0.192404,-1.212516,-0.080599,1.593274,0.568722,-0.114487,0.251630,-1.210856,-0.393734,0.085253,0.099422      },
	{-1.530616,0.327623,0.279197,-0.377051,0.004175,-1.483492,-1.479796,0.134687,-0.667723,-0.011556,0.839491,-0.173930,-2.810668,-0.150654,-0.481044,-0.234694,0.899731,-1.578530,0.243957,1.570304,-0.625943,0.472328,0.966306,0.210231,-0.685097,-0.709521,0.743800,0.592149,-0.786468,-1.176473,-1.280807,1.661652,-0.067945,2.360229,0.555546,0.439522,0.306272,0.999150,-0.966063,2.160013,-0.100302,-0.703400,0.302561,1.092339,-1.007555,0.566869,-0.716444,-0.506274,-0.489482,0.763541,-1.109073,0.192616,-0.343418,-0.847210,-1.213524,-1.202888,-1.633796,0.896167,-0.241653,0.158652,1.178189,-1.220117,-0.941546,0.254716      },
	{-1.824080,-0.578709,-0.924893,0.329522,-0.425816,2.008149,0.937891,-0.853238,-0.387313,-0.347585,3.306574,-1.510200,0.203540,-2.084432,-0.006937,1.909891,-0.408455,1.104554,-0.066115,-0.422499,-0.251656,-0.586903,-0.626058,-1.330194,1.506801,-0.393076,0.293774,-0.876532,1.116991,-0.273556,-0.091033,-1.828977,0.395976,1.811506,-0.869078,-0.458229,-1.138324,0.129162,0.064024,0.705081,0.551474,-0.812516,0.224948,-0.328301,-1.091033,-0.126856,3.801660,2.315171,0.139827,1.738857,-0.045383,-0.053138,-1.949572,-0.960106,-0.783499,0.107519,0.013985,-0.578942,-0.588813,-0.166153,-1.381412,-0.612639,-0.381290,-1.248949},
	{-0.330238,-0.834807,1.235382,-0.243804,-0.189546,0.428028,0.556968,-1.736242,-0.376784,-0.909032,-0.145170,-0.536333,0.157069,-0.980459,-0.567767,-0.591160,1.082591,0.368004,0.368889,-0.286318,-0.384718,0.561003,0.777434,0.015147,1.141648,1.274155,-1.664698,0.430379,-0.042602,0.388289,1.115977,-0.920538,-1.620274,1.106192,-0.998485,-0.686220,0.204621,-0.686102,-1.592211,0.034190,-0.781485,0.597860,-0.506077,-0.688446,-0.210001,1.052153,0.907904,-1.093226,2.799708,-0.325776,-1.152416,0.888232,-0.361672,2.153719,0.847408,-0.198720,1.575307,0.849115,-1.228895,0.888394,-0.516487,-0.083326,0.131054,-0.879096      },
	{-1.333342,0.367784,-1.388234,-2.575203,-0.836106,0.331092,-0.269881,1.267131,0.183753,-0.766310,-0.439584,-1.436541,1.085797,-1.381100,-0.920408,-0.160286,0.002353,-1.502650,-0.905536,0.265041,1.129723,0.349004,-0.025810,-1.562409,-0.617342,0.521494,1.080947,0.889376,0.138072,1.204600,2.881461,-0.593862,-0.763116,1.518483,0.235465,0.112308,0.392374,-0.654486,-1.034795,-0.777148,1.245946,-1.436641,0.498655,-0.557687,-0.353367,0.742951,0.843989,0.342977,-1.873120,1.570965,1.310197,0.091437,0.010258,1.801449,0.947224,-0.029294,-0.292339,-0.193537,1.177232,1.039992,-1.613423,0.464642,0.864121,-1.506463           },
	{-0.002965,-1.777044,0.129493,-2.083235,-0.681746,-0.611066,-0.708850,1.451528,0.535511,-0.399569,-0.933078,-0.238776,-1.029113,0.973080,1.996766,1.053200,0.331690,-0.165629,-0.405106,1.745285,-0.575936,1.561099,-1.131539,-0.296232,-1.714057,0.159234,-1.263728,1.665049,0.412272,0.537397,0.282678,-1.092541,0.124118,1.837081,0.008555,-1.017016,-1.852343,-0.713327,-1.762229,0.830517,0.781167,-0.875682,0.613981,-0.576455,-0.045614,0.371956,-0.443960,0.418203,-1.685728,0.117475,-0.034952,-2.046393,-1.809690,-1.859524,0.414307,0.123960,0.273958,-1.326378,1.138974,0.982841,-0.766963,1.176060,-0.250922,-1.776205      },
	{-1.632695,0.733723,-0.104049,0.881225,-0.088373,0.267671,2.123526,1.396849,-0.432827,0.374969,0.494445,0.761391,0.071009,-0.493532,-0.003623,-0.480287,1.683367,1.240726,-0.203615,0.428292,-0.165459,1.193241,1.048880,0.568611,0.871264,0.660571,1.174062,0.531131,0.151901,-0.577226,-1.571751,-0.027848,-0.741056,0.060009,1.140488,0.172825,-0.415002,-0.853129,-1.430135,1.332805,-1.776691,-0.934783,-2.313202,-0.316142,-0.342285,-0.404294,-0.063130,-0.821265,-0.913656,1.817826,-0.334063,0.907659,-0.836771,1.612729,1.514182,0.231019,-1.099532,0.087001,0.047304,0.239624,-0.978221,-1.523000,0.162363,-0.010291          },
	{0.002075,1.026801,-1.475160,1.010694,-0.743228,-0.395222,-0.825779,0.089620,-1.905818,-0.568086,-0.515757,1.263930,0.150698,0.695518,0.005939,-1.048900,0.907205,-0.845441,-0.526243,0.182100,0.945539,-0.201385,1.510525,-0.571478,0.665589,0.003616,1.546672,0.214406,-1.877313,1.088335,-0.081549,-0.553062,1.222965,-0.331309,0.599987,-0.768383,-0.836130,1.810582,-0.787033,-0.584771,-1.708321,1.629982,0.397998,0.237780,0.975138,-1.329337,-0.541047,-0.091438,-1.548471,1.311427,-0.018429,-0.323289,0.236225,-0.752582,0.045113,3.427539,0.604682,1.668311,-0.355083,-0.751569,0.309704,-1.341705,-2.306958,0.731592         },
	{0.641338,0.833851,0.028170,1.978373,-0.087328,-0.553965,-3.006499,-0.047166,0.831878,0.006861,1.124222,2.294881,-0.173350,1.231254,-1.585853,1.031319,0.063490,-0.221391,-0.163399,-0.156303,-0.308803,0.198673,-0.174292,-1.155792,0.417054,-0.607868,1.047987,-0.033827,0.127024,-2.049232,-1.256680,0.939614,-0.733817,-0.532438,-0.277940,1.363743,0.374138,1.310265,-0.267748,0.213176,-1.203243,1.178031,0.108648,0.044129,0.338316,1.446792,-0.214495,1.663039,-0.851523,0.422185,2.009218,-0.489815,0.245256,0.877505,-0.137900,-1.500353,-1.055959,0.580933,0.891515,0.784555,1.146432,0.071985,0.208233,-1.518869             },
	{0.317329,0.612681,-0.583211,0.644002,-1.815889,0.751100,0.300284,2.110609,1.413086,1.506980,0.817397,0.646616,-1.181631,-0.335091,1.826728,-1.456164,-0.450282,-1.419234,1.450952,-0.565781,1.544534,-0.413762,-0.504132,1.278529,0.938832,-2.716280,0.451141,0.600167,0.209807,-0.657658,0.028408,-0.398061,0.211323,-0.202394,-0.621928,0.163770,0.802439,0.289006,-0.553642,0.336254,1.069792,1.595404,1.207553,0.537380,-1.009124,-1.365553,-0.202381,-1.409185,-0.784785,-0.170122,-0.484210,-0.327918,-1.328005,0.231467,0.996508,-0.548137,0.725755,2.662727,-0.091811,0.651210,0.196770,0.969624,-1.718650,-1.056957            },
	{0.143464,0.886963,0.130524,-1.664573,-0.823613,-0.794706,0.388992,-0.762039,-0.680807,1.084748,1.335316,-0.413275,0.424903,-1.881484,0.198327,1.189978,0.526782,0.101061,-0.388643,-0.646792,-0.179082,-1.551441,1.610459,0.564211,-0.102437,-0.619805,-0.070340,0.797795,1.011448,-0.903691,-0.973529,2.078230,1.136593,0.708520,-0.138646,0.924020,-1.273233,1.531768,-0.035772,0.790861,0.646218,-0.131571,-0.175366,1.221583,1.026497,-1.772231,-1.692406,-0.946221,-0.893545,-1.118526,0.272111,-0.463704,1.206125,1.452878,-0.028683,1.683458,0.024214,-0.434791,0.064786,0.944860,-1.614461,-0.208599,0.297406,0.363085          },
	{-0.368436,0.488786,0.292122,-0.591908,2.181599,0.439550,-0.331183,-0.571719,1.029409,0.102060,2.548113,-0.435924,-1.242607,-0.027698,0.175067,-2.118451,-0.309169,-0.368415,-0.368764,-0.630226,-1.343193,0.758038,-0.583841,-1.023701,-0.759934,-0.472323,0.108647,0.668339,-0.953179,-0.479297,-1.345508,-3.392300,0.155794,1.520004,0.522083,-0.507060,0.096479,-1.174820,-0.122292,-0.427709,-0.852714,0.405652,2.599867,1.665450,-0.072073,0.884115,0.862707,-0.647538,0.643904,-1.440992,-0.805298,0.238753,-0.414788,1.756479,0.648040,-0.382038,-0.470580,0.186971,-1.055531,0.595612,-1.375302,0.623010,-0.164595,0.414614     },
	{-1.012586,0.244985,2.412348,-0.457217,0.317400,1.505567,0.761704,0.431885,-1.013689,-1.277588,0.053432,-0.463236,-0.019058,0.205657,-0.676428,0.494103,1.858556,-1.009341,-0.469546,-0.049611,1.140460,-1.186382,-1.065148,-2.163661,-0.440362,0.680146,1.065225,0.357154,-0.600957,0.706472,0.204319,-1.920706,-1.228095,1.511865,0.322205,-1.374794,0.819953,1.061435,-0.435034,0.657682,-3.740101,0.973577,1.175155,-1.124703,0.282085,-0.338121,-0.102529,-0.424880,-1.332295,1.890404,-0.310311,0.104755,-1.009401,-1.036867,0.412598,0.526392,0.877924,1.103774,-0.210208,-0.444203,0.746814,-0.637439,0.871759,0.374500          },
	{1.155026,0.670392,-1.054446,-0.865634,0.732485,1.907056,-1.322812,0.023212,0.281675,-1.525777,0.478125,-0.093123,-2.096557,1.621728,-0.863208,-1.282503,0.420142,0.557487,0.736411,-0.386003,-0.010914,-0.730807,-1.310197,1.079131,-0.102763,-0.182314,-1.999268,-0.178371,-0.842494,-0.174614,-0.219244,-0.446465,0.938839,0.447054,1.127154,-1.324827,-0.648956,-0.040281,-0.406639,-0.079258,-1.182103,-0.716178,-1.641554,-0.890026,0.694177,-0.214207,1.505753,-0.595534,0.119071,-1.213252,2.600672,-0.178621,0.829630,0.413385,-0.583879,-1.330901,0.156143,-0.556790,-0.155504,0.651302,0.078241,0.377116,0.150047,-1.467249   },
	{1.396062,1.175852,-1.136165,0.505301,-0.662024,-0.746916,-0.004842,1.747668,1.057958,0.605221,-1.150606,2.554449,0.873731,-2.348837,0.399474,-0.488695,0.409982,0.400640,-0.918519,1.825886,0.199785,0.941348,1.351424,-0.738158,-0.911768,1.121907,1.392837,-1.377019,2.011243,-0.235503,0.691785,0.564388,-0.971342,-0.864048,-2.083592,-1.151150,-1.482476,0.040191,1.369402,-0.027145,0.338854,0.778004,0.679709,-0.385832,-1.463345,-0.429806,0.062959,-0.871645,0.361961,-0.292712,0.621822,-0.803239,-0.921968,1.774056,0.028756,0.552964,-1.098422,-0.377264,0.682169,1.565616,-0.724485,-0.802917,-0.022669,-1.524395          },
	{-0.030133,-0.064728,0.724749,1.414610,0.569844,0.741551,0.052279,-0.359745,-1.995977,-0.886221,0.217267,-1.645594,0.242890,-0.400835,-1.021560,-0.470024,0.728782,0.885501,-1.937021,-0.149484,0.913885,-0.257895,0.108815,-1.495411,-0.480034,1.828775,-0.788068,-1.440632,0.149472,0.788629,1.193810,-0.517723,0.222476,0.544355,0.649211,-0.547203,1.712725,-0.687297,0.707872,-0.021911,-0.587219,-0.642851,-0.586347,-0.446871,-1.018886,0.697410,-0.703515,-0.615021,0.488691,-0.107962,-1.421904,-0.936010,-0.196557,-0.574988,0.750483,-0.764402,-0.967127,-1.010546,0.406657,0.483472,-1.672445,0.622075,0.860973,-1.690998    },
	{-0.690431,1.428892,1.006102,0.024793,0.501249,2.112020,0.502797,-1.220809,1.364939,-0.870939,0.993902,0.656271,0.889514,1.540933,-1.465914,-0.069589,1.946049,0.976382,0.177158,-1.023173,0.106720,-0.911881,-1.468367,0.576479,0.065306,-0.773513,0.394948,-0.503890,1.779559,-0.030572,1.577088,-0.812802,0.613349,1.843700,0.271091,1.136448,-1.738332,0.707135,0.030386,0.765002,0.867665,-2.256250,-0.443603,-0.670023,0.152164,-1.940533,-1.090509,1.001921,0.176892,-1.088014,-0.253217,1.098273,-1.839567,-0.211429,-0.229663,0.186979,0.503779,1.910342,0.553781,-0.587481,1.257950,-0.858668,0.436187,1.571463                },
	{1.077315,0.811090,-2.231538,-0.101003,-0.587375,1.324868,0.840648,0.261106,0.794442,-0.649616,0.634284,0.095003,-1.683207,0.344046,0.707158,1.193415,0.527389,1.006704,-1.732327,-0.373412,-0.142510,-0.329742,-0.089042,-0.577396,0.736165,-0.991206,0.125175,0.073153,0.143937,-0.947724,1.399230,-0.226124,-1.438854,0.801301,-0.003331,-0.096942,-0.095871,0.395437,-0.053243,-0.773500,-1.419186,0.303452,-1.518207,1.119708,-0.953861,-0.849614,-0.981900,-1.363078,-0.772599,-0.283625,-2.327604,-2.445227,-0.715865,0.883397,-1.300440,-0.076339,1.430557,-1.323409,-0.438356,-0.743152,0.891968,0.463873,0.617661,2.496417     },
	{1.629475,-0.099045,-0.201992,-1.448826,-1.714165,-0.049642,-1.299395,0.625355,-0.791719,-0.582943,-1.552680,2.110153,0.758830,-0.709930,0.151147,1.323091,-0.927825,1.906599,-1.032175,-0.177361,-1.650378,-2.538511,1.010091,0.085702,-1.733861,-1.640601,1.145361,-0.150595,1.431443,0.636587,-0.066563,0.032330,-0.555074,0.097786,-0.060985,0.837517,-0.163418,0.823555,0.920632,0.180763,-1.312968,-0.160477,-1.906075,-1.206622,0.730418,0.494893,-0.003209,-0.302433,-0.739401,-0.512812,0.965252,0.476679,-1.371217,0.198853,0.139963,1.648673,-1.757552,-0.783130,0.973626,-1.110932,2.385622,-1.178944,0.029122,0.559548      },
	{0.881037,0.715208,-0.462078,0.913207,-0.754653,-0.534977,0.456642,1.509577,-0.228171,-0.890342,1.209772,-1.264800,1.838181,-0.984083,0.640948,0.926691,0.785034,0.227003,0.049530,-1.653180,-0.780820,0.724645,0.663369,-1.037881,0.346979,0.252031,1.750919,-0.418401,-0.519857,-0.923443,-0.999278,0.374948,-0.704341,1.074704,-0.627299,1.533996,0.417725,0.258384,-1.150429,0.329114,0.045522,0.632083,-0.510847,-1.453630,0.275222,0.139787,0.243892,1.005650,-0.939641,-2.381750,0.475027,0.405913,-0.477056,0.170598,-1.047781,-2.106197,-1.692912,0.042361,1.382710,-0.389518,0.813938,-0.594332,-0.055439,0.796561             },
	{0.133180,-0.541678,-0.865302,-0.092528,1.182102,-1.570655,0.859331,0.283647,-0.969112,-0.018374,-0.204035,-0.947740,-0.539435,-1.256287,-2.071524,0.151236,1.044490,1.633349,-1.111379,2.147365,1.526307,1.423475,-0.785666,-0.562252,-1.938357,0.191159,-0.393603,0.161791,-0.834518,0.672870,0.343188,-1.144123,-0.045888,0.284685,2.008441,0.095781,-0.940409,-0.316263,-0.031223,-0.133595,-1.841472,-0.331577,-0.693309,-0.260513,2.120962,-0.832291,1.437941,1.160618,0.683498,0.003110,0.654393,-0.449920,-0.546459,-0.747862,0.273902,-0.209771,-0.239585,1.420229,-0.704749,0.735365,-0.521928,-1.592195,-1.425950,-0.491552   },
	{0.629611,0.641786,-0.240687,0.618422,0.076263,-0.261490,0.854731,1.187894,1.016027,-0.306873,0.567708,-2.129246,0.195067,0.361002,0.151975,-0.222273,1.304773,-0.093238,-0.139538,-0.240937,1.034105,-0.292460,-0.834349,-0.108759,1.707714,-0.300686,0.615772,-0.278111,-0.276747,-0.560841,-1.216304,-0.109782,0.718456,1.576193,0.441869,-0.816861,0.745505,0.454029,1.398363,2.089610,1.214608,-0.392758,-0.159230,1.157941,-0.507693,-0.140483,0.634340,1.070606,0.222911,-2.892520,0.339366,-0.312049,-0.975921,0.024130,1.120464,-1.129877,1.589923,0.978730,0.934164,-0.814709,-0.251242,-0.382835,0.000341,-0.062205           },
	{-0.317349,-0.177927,-0.211620,0.267484,-1.651817,0.486578,1.697272,1.072501,-0.945897,1.044608,2.289628,-0.242556,0.721032,2.299380,1.030296,1.550721,-1.095226,0.235621,0.391969,0.564287,0.789508,0.156175,-1.312394,1.066272,0.378860,-1.178617,0.758996,0.552980,0.537035,-0.286835,1.634406,0.571227,-0.789954,-1.542758,-0.767332,-2.369623,-0.260560,0.128957,-1.207666,-0.545444,1.553283,0.107291,1.535344,-0.184951,-0.176783,-2.199254,0.729289,1.100558,-0.342368,-0.310304,0.813036,-0.736297,-0.782324,0.317098,-0.606251,0.611058,-0.920310,1.509509,0.656464,0.065851,-0.873631,-1.057754,-0.897237,-1.432203           },
	{1.340430,0.342075,1.070628,1.739065,1.306606,0.449617,-0.411050,0.749300,0.211138,-0.260651,-0.515198,1.079217,1.477463,-0.275109,-0.437008,0.698170,-0.635176,0.603677,1.736930,-0.417834,0.024513,1.989693,-0.373168,0.141037,-0.941815,-0.702835,-1.378837,2.925250,0.571752,-0.045876,-1.057064,-1.824693,0.241738,-0.145152,0.501993,0.692329,1.012275,-0.042177,0.622010,-0.407536,-0.851446,-0.338183,0.768968,0.606498,-0.012613,0.322428,1.607508,-1.802410,-1.255068,-0.013034,0.700357,-0.215273,0.903088,-3.007437,-2.330467,-0.567803,2.667322,-0.000068,-2.241449,-0.360030,0.617494,0.962222,0.470549,-0.235804          },
	{0.678789,1.153618,-0.554733,-0.123601,-0.136098,-1.705542,-1.257096,-2.318625,0.084338,-0.297673,-0.339033,-0.034404,0.519269,-0.672583,1.173611,-1.592229,-0.013649,-0.098345,0.849877,-0.494986,1.068731,-0.233866,-0.101805,-0.149077,0.698096,0.853148,-0.604741,-1.408891,-0.981102,0.165183,-0.016646,0.140933,-0.725172,0.795741,-0.176439,-1.633435,0.155350,0.547426,0.143760,0.130221,0.227172,-1.053729,1.531753,-0.326494,1.466845,-0.554129,0.966675,0.240180,0.100314,-0.938791,1.205819,0.418972,-0.090250,1.207375,0.088580,2.209805,1.016677,-0.330709,1.358382,0.060856,2.005891,0.081658,-0.079209,0.093968          },
	{0.399507,1.549311,0.292857,-0.106715,-0.493460,0.785681,-0.554345,-1.168830,-0.942246,-0.464928,-0.124434,1.053172,-0.577244,1.197128,-1.637706,2.634603,-1.586424,0.198087,-0.217580,-0.785315,0.676409,1.057214,-0.172186,1.209385,0.064058,-1.063780,-0.079188,-0.527496,0.460215,-0.399167,-0.074183,-1.085357,1.069356,-0.355628,-1.069477,2.631474,-1.412974,0.507430,-2.163666,0.308523,0.188114,-0.252378,-1.363544,-0.858531,-0.806561,-1.174124,-0.948046,1.435126,0.391209,1.330828,-0.988842,-0.431303,-1.737050,-1.190456,-0.291113,-0.420606,1.777354,0.108047,-0.265100,0.459463,0.026879,-1.085703,-0.626888,1.398957   },
	{1.303788,0.257235,1.019485,1.642809,-0.441726,0.184315,0.221091,-0.826814,0.446432,-1.143678,0.102260,-0.268914,0.429547,-1.354861,-0.521099,1.883164,-0.134846,0.068144,-0.669571,0.045371,0.379771,-0.475564,-0.249496,-0.166460,0.295737,1.130517,-0.669326,0.805981,0.804606,0.254832,1.081652,0.099068,0.107816,-0.173552,-0.270364,-0.210498,-1.860821,0.600274,-0.322256,-1.468866,0.970322,-0.975542,0.859492,-0.741556,0.958888,1.898921,-1.595063,-0.254962,0.956809,0.279689,0.281697,0.915603,-0.788860,-1.283047,-0.713810,1.333552,-0.763906,-1.534958,1.156781,-0.512181,-0.449009,-1.393872,0.530389,0.567966           },
	{-0.550456,-1.193733,-1.892100,0.568058,2.596495,0.404323,0.608322,0.146561,0.349577,-0.233016,0.294189,-0.801007,-1.240693,0.111239,0.098162,-1.174422,-0.551431,-0.350073,0.715783,0.158668,-0.167610,-1.592216,0.270411,0.529199,2.198112,0.446333,0.924111,0.933661,-1.812702,-0.124618,-0.169645,-0.459970,0.856534,1.626721,-0.924470,-0.155994,0.424998,-0.779551,-2.116536,-0.215063,-1.104091,-1.938459,0.901897,1.635481,0.528926,0.415964,0.434083,-0.077608,0.449169,-0.131302,-0.750935,1.277652,0.748762,2.657273,-0.818607,-1.445151,1.341763,-0.105190,1.356787,2.014014,-1.372630,-0.857428,-1.681288,-0.150599         },
	{-0.721064,-1.940882,0.099905,1.281836,-0.970079,1.245377,0.696871,-0.064552,-1.057840,-0.469222,2.128396,-0.389241,0.569613,-0.274299,-1.098417,0.689721,1.649248,1.065133,1.609045,0.143017,-0.002557,0.527680,-0.222621,-0.491485,-1.593840,1.018373,0.049685,-1.601849,-1.818411,1.771657,1.075603,0.383403,-1.466998,-0.264782,-1.032079,-0.364435,-0.216874,-0.725282,-1.393770,0.738705,0.249347,0.548552,1.134898,1.102947,1.663230,0.925866,0.459116,-0.412345,-1.289731,0.590259,-0.292061,1.997626,-0.504553,0.280079,0.284664,-1.473234,-0.765097,-1.986660,0.274504,0.186681,0.743763,-0.725189,-1.059526,-0.321963         },
	{0.413256,-1.082994,0.381849,0.490253,0.820316,-0.357466,0.087138,1.228502,-0.699969,-0.038244,2.006027,0.304047,0.943274,0.300478,1.006934,0.484680,-0.219420,-0.240284,-0.228420,0.657788,0.024372,-0.016738,0.080445,0.274499,1.563248,-0.926580,1.078571,-0.426220,-0.335052,-0.148293,-1.354585,-0.634844,-0.135872,-0.596771,1.297082,-0.824147,-0.167253,-0.604033,1.251292,-1.342867,0.415251,1.196870,1.407704,0.176887,1.728332,-0.951684,-0.551577,-0.539119,0.257271,-2.113932,0.948533,1.231276,-0.288187,1.258197,0.573756,-0.976875,-0.691030,-0.507291,0.328753,0.940587,0.672007,-0.620276,0.112850,-0.613204           },
	{1.582271,-0.384438,-0.067375,-0.283410,-1.199518,-0.079035,0.821873,-0.170750,-1.651031,-0.208626,-0.710947,0.052347,0.965360,-0.700208,-0.155508,0.046361,-1.427675,0.352934,-0.294159,-0.956312,-1.345773,-0.042498,0.820502,0.490995,-1.178042,-0.341079,0.458680,1.192809,1.507616,0.215930,1.076200,-1.399356,0.508623,1.592426,-0.041443,1.375942,1.355604,0.625325,1.675502,-0.290196,-0.228995,1.524646,0.389195,-1.242944,0.027099,2.979976,-2.368804,1.322194,-0.508675,0.528439,0.825217,-1.348432,-1.558124,-0.869865,-0.097838,-1.682501,0.656260,0.592232,0.298335,0.224785,-1.318878,-0.315904,0.041678,0.773517         },
	{0.130982,1.667159,0.624447,0.054561,0.452399,1.614796,-1.126841,-0.360084,-0.349691,-0.670759,-0.956580,0.597939,-0.456774,0.611096,-0.460454,-1.262019,1.198047,1.798412,0.224679,0.523085,1.736767,0.508653,1.165039,0.713120,1.319977,0.311109,0.298932,0.608673,-1.349546,-0.873316,1.361042,1.420655,0.430374,-0.951992,1.202768,0.079926,-1.170261,0.619543,0.892489,0.876115,-0.309581,-0.519604,-1.306872,1.519599,0.212861,1.566498,-0.258905,1.711489,-1.820816,0.163495,-0.813117,-0.605355,-1.327524,-0.644172,1.908883,-0.563545,1.082473,-1.951911,2.441216,-0.017285,0.912282,1.239658,-0.573367,0.424889                },
	{-0.271260,-0.683568,-1.537438,-0.101374,0.746666,0.929182,0.229418,0.414406,0.309724,-0.737456,-1.536920,-0.562255,-1.599511,0.824390,2.491486,1.011855,-0.281238,0.016707,1.153920,-0.600915,0.132937,-2.169974,-1.116559,-0.569368,0.636267,-0.767649,0.618479,0.183161,1.859351,-1.075515,-2.019220,-2.437464,-0.148564,1.151151,0.185323,0.658461,-0.049536,0.237399,-1.511580,1.932370,0.482422,-1.315783,-1.963615,0.533068,-0.109323,-0.283183,1.433744,-0.568617,-0.849846,0.724446,0.605898,-1.290259,0.789433,1.960914,-0.335540,-0.607612,-0.727242,0.851409,0.888417,-1.111323,1.137844,1.275549,0.294599,-2.185679         },
	{0.792377,-1.625041,0.739831,1.014269,0.958208,-2.615371,-0.728131,0.742498,-0.082144,-1.524902,-0.438179,-0.005392,-1.712085,1.705586,0.811190,0.149361,-0.735456,-0.312967,-0.653416,-0.991226,0.148966,1.103324,-0.190049,-0.412264,0.178620,0.781681,-0.524640,-1.381097,0.945476,-1.361691,0.534988,-0.095959,-0.896407,1.387181,0.997393,0.576468,0.440001,0.475470,-0.983577,-0.561994,-1.641003,0.292283,1.433105,-0.383711,0.237493,-0.532755,-0.471180,-0.340085,-1.463206,1.138598,-0.005025,0.971588,0.302341,-0.806236,-0.316912,-1.586865,0.788687,0.137225,-0.785181,-1.506570,-0.576410,-1.107288,0.135283,-1.052778     }
};

const float w2list[L1][L2] = {
	{0.198876,0.439975,-1.279135,-1.042794,-0.655607,0.257154,-0.356809,-2.252247,-0.760275,1.135156,0.632681,0.653863,-0.056068,2.172996,-0.068731,-0.231319,-0.472346,-0.398688,0.782281,-2.084000,-1.185218,1.400778,-0.775764,-1.127582,-0.167248,-0.748299,0.292871,-1.196332,1.499101,-1.310930,-0.083947,0.055821   },
	{0.246392,-0.060607,-0.005779,-0.070002,1.305683,-0.125399,0.963553,-0.732265,-0.002419,-0.130170,1.000471,-0.586602,-0.691723,-0.156080,-0.021203,-2.102350,-0.858481,1.110172,-0.254574,-0.241626,0.570245,0.540535,1.739275,0.631244,-0.440285,0.055037,0.774104,0.961669,-0.902624,0.669783,1.767132,-0.173421     },
	{0.011310,-0.925462,-1.061874,0.011534,0.788092,-0.298743,1.105651,0.907803,-0.366147,0.730094,-0.129341,0.092950,1.073858,2.438684,-1.396215,-0.330331,1.160260,-0.244241,-0.429362,1.667689,-0.060836,0.787298,-0.309336,-1.558638,-0.511101,0.683766,0.192982,-0.797861,2.063872,0.117895,-0.995360,1.299512        },
	{0.916603,-0.559934,0.654174,0.790547,0.462341,0.129854,-1.768078,-0.323381,-0.052915,-0.583363,-0.356246,0.701507,-0.498703,-1.696172,-0.625829,-0.535584,-0.161891,-1.226760,-0.310638,-0.876860,0.779547,-0.193539,0.547569,0.276812,-1.284571,-0.042360,1.669884,-1.610850,0.947847,0.098646,-1.510664,0.573416    },
	{1.003454,-0.060991,0.307165,1.822392,-0.605418,1.828015,1.641788,-1.325293,0.123541,0.066932,1.293410,1.169079,1.510159,-1.619323,1.377156,0.567917,-1.838673,1.313083,-1.107092,0.772959,-0.586082,-0.205840,0.443604,-0.209698,-1.452173,0.305803,-1.152520,0.544356,-1.252270,0.139334,0.364208,2.013717           },
	{-1.937597,0.316160,-1.260336,0.478613,-0.112248,0.769181,1.416186,-0.337464,-0.013370,0.904142,-0.529141,0.403164,0.838859,-1.076188,-1.524973,0.175713,0.876726,-1.504967,0.491094,-0.365393,-0.171604,1.031659,0.140505,-0.855085,-0.012255,-0.233622,-0.281150,1.179335,-0.654688,-0.793112,0.250454,0.638913      },
	{-0.133837,-1.231552,0.108746,2.424255,0.566313,-1.662220,-0.951645,0.093501,0.541827,-0.695674,2.164173,0.537853,0.332644,1.256947,0.245619,-1.965461,-0.394223,-0.639287,-0.337306,0.114029,0.692507,-0.773763,-0.765226,-0.077640,0.575670,0.551034,0.600293,1.109558,-0.360985,1.120129,0.334544,0.157896          },
	{1.801444,-0.318745,-0.766266,1.465151,-0.044859,1.105299,0.398478,-1.752419,0.281023,0.624609,-0.072546,0.623351,1.192175,1.471532,0.791971,-0.844757,0.124144,-0.713904,-0.460423,-0.475682,-0.053399,0.221880,2.083893,0.247515,1.782746,-0.013489,0.767972,-0.355492,0.036212,-0.716643,0.692743,-0.779134         },
	{-0.297421,0.220336,0.434984,0.524904,-0.473790,-1.359320,-2.259976,-0.893481,-0.656715,-0.692990,-0.841654,0.460620,-0.274902,-0.137153,-0.786284,1.631779,-0.276026,-2.351153,-0.777234,-1.328378,-1.401197,0.462693,2.381686,-1.208986,-0.418867,-0.785321,-2.164551,1.144581,-0.950502,0.764123,1.319490,-0.120325 },
	{-1.054309,-2.758928,0.659755,2.143405,-0.450877,0.465107,-0.387744,-0.606736,1.536559,0.171157,0.013563,0.128522,0.123785,-1.612687,-0.169906,1.718791,0.795276,-0.562186,0.193950,1.260308,0.332623,2.495995,0.334873,0.244085,-1.081475,-1.671211,1.029451,-0.395552,-0.764782,0.564002,-0.613929,0.705637          },
	{0.241072,-0.625265,0.257596,-1.476500,0.439631,-0.513410,-0.036907,1.234065,0.031094,-0.654621,0.986429,-0.045557,1.203282,-0.745862,-0.297846,-0.982235,-1.321825,0.163357,-0.624967,-0.741712,0.136223,-1.059449,-0.080974,-0.524548,1.838266,-0.836072,-1.359158,-0.553493,0.154737,-0.877861,-0.554523,-1.275889  },
	{-0.847276,0.339490,0.886784,0.397001,0.962960,-0.079727,0.644843,0.404672,-0.021283,-2.438133,-0.165711,0.922355,-0.805489,1.817659,0.826579,1.518518,1.763453,-2.100680,0.957312,0.247875,1.182572,0.978519,-0.573164,-0.984446,-0.994186,0.169308,-0.931714,-0.954363,-0.612607,0.326476,-0.801570,1.048546         },
	{-0.781579,1.367483,-1.021426,-0.200914,0.102552,-0.963609,-0.734633,0.246883,-0.466162,-0.567265,-0.416772,0.182802,-0.839417,1.663421,-1.883646,0.039071,-0.148785,-0.356176,-1.401372,0.619891,-1.671564,0.522012,-0.102740,-0.538994,-1.278386,-0.721320,-2.351311,0.617173,0.138094,0.512541,-1.201120,-0.596415  },
	{0.595135,0.233907,1.100631,0.424736,0.337243,0.138936,1.405944,-0.478353,-0.644919,0.013150,-0.037476,-0.243614,0.879404,0.387263,-0.504255,2.157701,-0.569286,0.588986,-0.851910,-0.540621,-0.351258,1.859206,0.107128,0.188121,-1.438777,0.227848,-1.030172,-0.676196,0.443996,-0.471159,1.513440,1.292071          },
	{0.185051,0.072435,-0.180964,0.323814,0.470044,-0.254326,-1.164221,0.256729,0.176871,-0.674122,-0.054403,-0.816759,0.602663,0.157167,0.184836,0.724624,2.191634,0.039529,0.588530,1.086236,-0.093345,0.897423,1.254605,0.012417,2.841767,-1.747250,-0.772711,-1.164875,1.148887,0.278407,-0.748828,0.798762            },
	{-0.291600,2.630057,-0.504095,1.089087,-1.007032,0.538999,-0.449902,-1.300630,-2.050024,-0.285237,0.981871,0.039206,-1.416159,1.410622,0.424755,0.782228,0.447113,2.536914,0.180524,-0.800615,1.079820,-2.182867,0.288310,-0.378736,1.282981,0.046352,-0.755243,0.139162,-1.308171,1.847414,-0.229900,0.688946         },
	{-0.629217,0.439618,-0.083647,1.926555,-1.471742,-0.413301,-0.508967,-1.231050,-0.128566,0.853637,-0.727752,-0.012629,0.454412,0.549810,-0.517976,-2.412362,-0.446991,2.069475,-0.939424,-1.052124,0.203696,0.007131,-0.687050,-0.015582,-0.164745,0.372484,0.441780,-1.082960,0.695707,-0.220089,-0.638427,1.045046   },
	{-0.027534,-0.359966,-0.262936,0.528764,0.182918,0.676832,-1.826346,1.130380,-0.084229,0.554689,1.397361,1.369847,-1.373075,1.015120,0.264719,1.031523,-1.578459,-0.990763,0.256726,-0.899628,-0.386775,1.409773,2.229974,-0.189618,0.952467,0.170209,0.939885,0.532162,-1.238775,1.289432,-0.858206,-1.300798         },
	{1.198187,-0.336650,0.841947,0.543372,-0.962988,-1.600955,1.757337,0.693595,1.465480,-0.179738,1.243758,1.712570,-0.249004,-0.268640,0.093038,-0.037562,-2.660022,-0.950913,0.280639,0.293681,0.256731,-0.301426,-2.033287,0.123043,0.213727,-0.907536,0.352692,0.256358,-0.540776,-0.123674,0.837024,0.293087         },
	{-0.931367,1.567161,1.161551,-0.816761,-0.718210,-0.633376,0.585639,0.678089,0.589031,0.712359,-1.284896,-0.560930,-1.911417,0.837892,1.015717,1.095313,-0.400084,0.334357,0.386321,1.516669,-1.912469,0.742420,-0.338237,-0.350982,0.630377,0.431083,-0.849705,0.522138,0.404606,1.650256,0.249221,0.784159           },
	{-1.482420,-0.454546,-0.972274,-0.050935,1.707453,-1.725418,-0.309002,-0.045379,-0.505819,1.387160,1.120772,1.012427,-0.303740,-0.105409,0.523768,0.142974,-0.818748,0.745831,-2.110367,1.072824,1.731285,0.359305,0.876583,-0.028239,-1.037402,1.349531,-0.879811,2.214819,-0.353536,0.063484,0.006447,0.410248       },
	{-0.577676,-0.328235,1.212363,-1.431414,-0.682390,-0.886463,-0.106569,0.067330,-0.207495,0.291216,0.953480,0.797864,-0.170141,0.228678,-0.870103,1.322219,0.181506,-2.439409,-0.347412,-0.906985,0.988151,-0.594399,-0.677693,-0.505468,-1.756021,-1.463326,0.532316,-0.800028,1.168331,-1.044768,0.063571,-0.335682   },
	{-1.147648,0.142980,-0.648273,0.007226,0.435922,-0.887852,2.465396,-0.586558,0.787484,-0.077219,0.090667,0.174133,-0.714944,-0.043452,0.023977,0.167424,-0.382029,-0.032614,-1.281649,-0.289726,-0.594695,0.043057,0.374951,0.012118,1.763483,-1.351047,1.188150,0.491517,0.000934,-1.891359,0.453654,-0.372336        },
	{0.231261,-1.413693,-0.584051,-0.106443,1.376203,-0.425119,-1.907582,0.282737,1.495254,-0.297598,-0.746114,0.322444,-1.408269,0.146043,-0.154879,-0.257751,-0.207764,-0.674734,-0.516172,-0.742764,0.266105,0.069559,-0.486040,0.524489,0.473071,1.762343,0.899112,-0.018432,-1.050405,0.255167,-1.187092,0.659357     },
	{-0.313643,1.217697,-1.087466,-0.051539,0.206130,-0.626527,1.392167,2.825771,1.033557,-0.808648,-1.090127,-0.310668,-0.163263,-0.460341,-1.334141,0.515452,-0.489945,0.303284,2.452996,-1.873634,-0.068109,0.057227,0.004421,-0.065359,0.233836,-1.139200,-0.010400,-0.520939,-1.089221,-0.346203,-1.845407,-2.598922  },
	{0.198222,-0.484180,0.207029,0.754987,1.359420,0.696072,0.682201,-0.011214,1.344760,-0.831492,-0.407972,-1.330804,0.352599,-0.537885,0.393444,0.286518,2.042536,-0.919461,0.114670,-0.137424,1.365527,-0.261638,-1.286241,-1.654657,0.037233,1.270301,-0.143277,0.795255,-0.072072,-0.742424,1.225654,-2.205388        },
	{-0.530638,0.168214,-0.968846,0.309654,0.940108,-0.163390,-0.320882,-0.403431,-0.664067,-0.116287,-0.416404,-0.210625,2.611800,-0.817096,0.229693,0.135286,2.015310,-0.983595,-0.039840,-0.709986,0.251904,1.010051,-0.746995,-0.227140,0.842467,-0.002845,0.057319,-0.791155,1.511508,-0.429204,-0.281490,-0.298651   },
	{0.971363,1.165934,-0.184506,0.006585,0.506548,0.195783,0.785216,1.099251,-0.638159,-0.225811,-0.051891,-0.491036,-2.245990,-0.798511,-0.809394,0.240431,0.437696,0.302163,0.276812,-0.912311,-1.463644,0.801110,-1.477597,1.960286,0.291998,0.114903,0.389295,-0.461850,0.722021,-0.133376,-0.837945,0.444084         },
	{2.723573,-1.115825,-0.227754,1.331713,-0.492146,1.359046,1.084773,0.015616,-0.173428,0.940284,-0.777464,0.760897,1.401753,1.231653,1.001158,-0.978052,0.677956,-0.069464,-1.057361,-0.140121,-1.433495,-0.179081,-0.123043,0.538195,1.065478,-1.401320,-1.327604,-2.046316,0.838534,-0.686931,-0.562013,-0.044288     },
	{-0.004737,0.684186,-2.160271,-0.197359,-1.232533,1.691840,0.531288,0.351969,2.172092,-0.146207,0.896195,-1.461201,0.201412,2.274656,0.498011,-0.751855,-0.975596,-1.573866,0.443637,0.861052,0.127106,-0.811347,0.241821,-0.686743,1.220735,-0.410869,-0.882769,-0.545628,0.386800,-1.230491,0.667029,-0.271261       },
	{0.081820,-0.129966,2.264059,-0.169505,0.845225,2.453229,0.425752,1.847596,0.097455,0.796707,-0.588708,-1.112179,-0.968771,-0.024155,0.285738,-1.116903,-1.378356,-1.876728,2.126709,0.107593,-2.145268,-0.009091,-0.159271,-1.377173,1.159312,-0.457362,0.041293,-0.284312,0.046385,1.017533,0.605671,-0.451887       },
	{1.575488,1.540193,-1.463203,-1.114550,-0.611164,1.525084,-0.182713,-0.571921,-0.033994,-0.224143,-0.155979,-1.069637,-0.793159,-0.267161,1.381576,1.289161,0.915687,0.363326,-2.611876,1.780367,1.118012,-0.369319,-0.648383,0.186072,0.044710,-0.692673,1.493981,-0.655053,0.249871,-1.204252,-0.255289,1.082266     },
	{0.042570,-0.586913,-1.948176,-0.340991,-0.354654,0.733346,1.322219,-1.218571,0.801691,-0.968736,1.149338,-0.436796,0.557279,1.548829,-1.703670,0.146859,1.577395,0.779122,2.165941,-0.496248,1.085210,0.718440,0.050588,-1.012320,0.223732,1.933760,1.249881,0.488416,-0.493917,-1.407513,-0.199030,-0.908987         },
	{-0.355910,1.102628,1.225241,1.087178,0.544154,-0.529796,0.438998,-1.726708,1.104046,-1.099343,1.334137,-0.633545,2.233114,-0.263858,-0.115697,0.762400,-1.341866,0.218600,-1.005283,0.676851,0.499756,0.224330,1.236182,0.143497,-2.194767,-0.753216,-0.959582,0.663386,-0.202360,-0.643029,-0.813453,-0.341617       },
	{0.421840,0.889507,0.037506,-0.442879,0.039251,-1.211100,-0.457923,1.428613,1.072204,2.236463,-0.733202,2.600243,-0.506851,-0.653152,0.296998,0.491304,0.194240,-0.077575,2.061826,-1.197943,-1.096549,0.212838,-0.097306,0.050913,2.317882,1.671679,0.643268,-0.765866,0.255103,-1.741829,-0.848843,0.749750          },
	{-0.939474,-0.614059,0.224215,-2.937464,0.212629,0.313521,0.567826,1.682660,-0.516287,-0.205855,-0.785945,-0.620885,-0.722304,-0.719337,-1.960869,-1.141708,0.795877,-0.340183,-0.492150,-0.434962,0.313791,-1.327164,0.910620,-2.079486,1.017787,0.426675,-2.059080,0.086566,0.399969,-1.194173,-0.065596,-1.516735   },
	{0.867877,0.704036,-0.014163,-2.551337,-0.059105,-0.178263,-0.672131,-1.457736,-0.841527,-0.492428,-0.105459,0.658707,0.627759,0.202706,-1.028616,0.199859,0.657179,0.690478,0.958952,-2.322067,-1.443154,-0.393106,0.783827,0.843108,-0.627495,2.080205,-1.862350,-0.325187,0.691860,-0.464467,-0.938917,1.212339     },
	{-0.130561,0.212309,1.201288,-0.799431,0.202868,-0.415315,-1.198378,1.068135,0.538985,0.284617,0.082549,1.406201,-2.580359,-0.287998,-1.454151,0.242415,1.223798,-0.851228,1.526587,0.369451,0.781736,0.807586,0.395243,-0.936288,-0.724720,-0.032801,-0.471613,0.563769,-2.267927,0.342654,-0.097967,-0.240245        },
	{-0.096304,-2.194386,0.694276,0.029121,2.453035,0.718793,0.213391,-1.087456,-0.887342,-0.940305,1.922119,-0.826697,-1.522364,0.922024,0.872963,-0.100550,0.940455,0.274938,-1.273522,2.106997,-2.214957,-0.342288,1.466830,1.970291,-0.925093,-0.006071,-0.988292,1.488770,0.280411,-0.348911,0.554253,-1.542241       },
	{-1.257531,0.271502,1.290228,-0.246541,0.342479,-1.030433,1.764942,0.847560,1.334679,1.674733,-0.236881,-0.355701,-2.032497,-0.442835,0.671444,1.084361,0.276469,-0.115548,0.988373,0.411294,-0.627007,-0.146056,0.272931,-1.098943,-2.757264,0.756136,-0.982768,0.910849,0.660414,-0.128932,1.828012,0.675961         },
	{-0.351956,1.621526,-1.088266,-2.527136,-0.357133,0.947977,0.436882,-0.271729,0.699366,-0.778022,-1.186369,-0.558370,-0.735977,-1.025190,-0.163890,1.251046,-0.317254,-0.920941,-0.537824,-0.224357,0.557343,0.778837,1.766566,-0.564812,0.507357,-0.187758,-1.003090,0.002017,-2.209064,-0.391971,-0.089293,-0.276808 },
	{-0.738292,0.478169,-0.527123,-0.856516,-0.011489,-0.340968,0.922037,0.454824,1.110510,-0.854046,-0.534238,-0.158724,0.378658,1.622564,-2.405512,-0.966727,0.705771,0.216877,-1.853907,-1.312089,-1.165320,-0.537445,-0.495144,0.610609,1.465070,0.283345,0.003410,-0.460160,-0.707745,-0.161989,-0.371073,1.219107    },
	{1.480642,-1.086871,-2.064871,-0.912428,-1.989286,0.895146,0.810966,0.796371,0.762637,0.669903,1.309994,0.177927,0.398010,-0.222363,0.742029,-2.405761,0.742540,0.773981,1.807010,-1.384666,0.188001,-0.190951,-1.517404,1.244337,0.442482,0.748482,-1.835957,-1.096154,-0.520116,-0.477372,-2.121389,-0.791554        },
	{-0.168771,-0.389912,0.289598,-0.351122,-1.348781,-0.093024,0.369657,-0.392786,0.151256,2.944984,1.628818,-0.346419,-1.018766,0.134662,-0.140706,-0.260977,0.817049,0.073754,0.598213,0.149660,2.720085,-1.613784,1.523005,-2.385016,0.916711,-1.084699,0.183543,1.848799,0.398947,0.891963,1.231501,-0.023414         },
	{-0.748202,0.148795,0.438148,0.383654,1.549136,-0.726584,0.975196,-1.284788,2.104185,0.227257,-1.129166,-0.281332,-0.739417,-2.584321,-1.176648,0.971201,-1.240022,0.678571,0.780602,0.931010,0.230803,-0.952187,-1.056938,0.010104,1.290811,0.843435,-1.031413,-1.381720,-0.057072,0.409803,0.722852,-0.161942        },
	{-0.112795,-1.360538,1.695985,-0.101915,1.085746,-0.193062,0.513036,0.202667,0.781860,-0.595598,0.193907,-0.246118,-0.295291,1.102492,0.441911,-1.178517,-0.134037,-0.375852,0.116555,-1.136983,0.972295,0.169951,-1.149762,-0.557765,2.432556,2.030063,0.317218,1.042055,1.397003,-1.386032,0.675649,-0.208802        },
	{0.041612,-0.364793,-1.382662,0.032714,-1.730045,-0.612037,1.165867,0.784878,-0.533384,1.370193,-0.606399,-0.908674,2.284885,0.688306,0.662397,0.888896,0.544374,-0.726521,-0.686947,0.335909,0.488495,0.921521,-0.109633,1.847967,-1.325153,1.930136,1.403290,0.326910,0.306912,-0.245137,-0.816981,-0.449693         },
	{0.406504,2.240693,0.885442,-1.440149,-0.997730,0.940431,0.027680,-1.029724,-0.959195,-1.191047,1.755515,-0.045794,-0.015377,-0.342404,-0.602462,-1.507610,0.316826,1.298970,-0.343785,0.360061,1.147426,0.827660,-0.794863,-0.321486,0.149947,1.691506,1.244288,-0.111723,-1.886600,-0.065277,-0.848412,0.915793      },
	{-0.881016,-0.676689,0.071754,-0.094366,-0.881015,1.513925,-1.065279,-3.069207,-1.723354,0.214539,-0.076169,-1.652493,-1.859108,0.006445,1.443520,0.438789,-0.829514,0.445627,-0.829765,-2.284616,0.306714,0.238498,0.931344,0.738294,-0.027384,0.764850,-0.831727,-1.410857,-1.798279,-0.698159,0.606902,0.850187     },
	{-0.850901,0.438367,0.624846,0.873945,0.380687,-0.963451,-0.105331,-1.050484,-1.217319,1.471011,0.667058,0.025739,-0.921140,-0.537425,-0.037046,0.901600,0.624296,-0.005015,0.838349,-0.656570,1.828608,0.578902,-2.317783,-0.585854,-0.340377,1.721194,-0.040365,-0.000572,0.983725,1.170460,-2.055056,0.599075       },
	{-1.305810,-0.103333,-0.331690,0.904045,2.956399,-1.584759,0.497096,1.265664,-0.182023,-0.637904,1.764202,-0.353522,-0.390465,0.081924,-0.496045,0.640100,-1.153280,-0.720615,-0.402486,0.742659,0.669440,1.434784,-0.306563,0.367911,1.268154,0.065453,0.834569,-1.115651,0.847658,0.238571,-0.463588,-1.145754       },
	{-0.018751,0.538716,0.254868,-0.091577,1.068479,1.085213,-0.839408,-0.180970,-0.392431,0.145094,-0.058708,0.686470,-1.041768,0.296341,2.950796,-1.925068,-0.143357,-1.186374,0.186666,0.959463,0.317448,1.453343,0.567064,1.309549,0.133300,-0.966290,0.359765,0.160278,0.207174,0.849637,-0.720971,0.118936           },
	{-0.754493,0.874322,-0.668168,0.338340,-1.189131,-0.020724,0.360097,1.082388,0.439085,0.667316,-0.192955,-0.045142,-0.457597,0.268702,0.541413,0.560366,0.463423,1.297806,-0.230910,1.712177,0.248428,-0.738683,0.330432,-0.057806,-0.030583,0.941293,-0.598482,-0.980355,0.207021,-0.655022,0.132017,0.790022         },
	{-1.368904,0.938048,0.484731,0.243340,-1.430705,-1.067282,-0.757088,-0.475011,0.080769,1.295681,0.530083,-0.424635,-0.600747,1.376987,0.414011,1.027761,-0.824861,0.257111,-0.709690,-0.152003,-0.622890,-0.140098,-0.194306,-1.368116,-1.163993,0.430824,0.133907,-0.811671,-0.528279,0.462801,1.313237,0.833175      },
	{-0.201892,0.093311,-1.009972,0.417053,0.433208,-0.200063,-0.481925,0.052676,0.590432,0.419488,1.438054,-0.209167,0.140549,0.845546,-0.157686,0.791405,0.560312,0.622597,-0.649512,1.605774,-1.456516,-0.159247,0.945274,-1.150932,1.186234,-0.923201,-1.486823,1.288707,-0.503980,-0.929357,1.411416,-1.304802        },
	{-0.525961,0.147493,-0.638863,-0.454460,1.600682,1.898108,1.295223,-0.677051,-0.034313,0.042441,0.059367,0.112528,0.172153,0.232374,1.007139,1.161884,2.073811,-1.551737,0.579293,-1.530137,-0.941255,1.547766,-0.158887,-0.514125,-0.160758,0.588576,0.749952,-1.081978,0.286758,-0.842626,-0.446644,-0.716602        },
	{1.515189,-0.363055,-1.295238,0.223313,0.702296,1.299799,-0.218589,-0.355931,0.932410,-1.172972,0.869899,0.351531,0.534739,0.584338,-0.904450,0.204418,-1.129361,1.072630,-0.582288,1.237818,0.289368,-1.004584,-1.032532,-0.901072,-0.514878,0.417854,-2.048833,-0.989744,-0.338294,1.503826,-0.258209,-0.154596      },
	{-1.655827,-0.093555,-1.090081,0.778008,2.168954,0.587482,-1.101444,0.647622,-0.864606,-0.319154,0.137911,1.247326,0.105161,0.598658,0.066523,0.618592,-0.102752,1.228180,-1.433920,-0.761386,-1.112908,-0.693291,-0.979285,0.494383,-0.651002,-0.036413,-0.535066,-0.756931,0.100195,-1.308251,-1.089114,-1.664019    },
	{-0.700280,-0.075927,1.159910,-0.836504,1.582104,-0.127180,0.433656,0.169408,0.572465,1.829893,1.418651,-0.977628,-0.419567,0.429714,-1.063328,0.391182,-0.074786,-0.999361,0.344403,0.973681,-0.943087,1.602595,0.237616,-0.128196,0.392323,-2.592894,0.775291,0.264917,-0.456757,0.337155,0.404934,-1.060948         },
	{0.093694,-1.592293,1.813806,-0.103458,-0.305241,-1.404708,-0.365750,-0.097275,0.275137,-1.558889,-0.368788,0.746565,0.327954,0.150097,0.671278,-0.398021,-0.800105,-0.553789,0.713312,0.890695,0.004502,-0.985396,-0.178279,0.923813,0.714544,-1.021254,0.232299,-0.154917,-0.399993,-2.658387,-1.003429,1.389284     },
	{-0.071352,0.138888,-0.096762,0.403115,0.628149,0.567997,1.181981,0.458706,1.703776,1.510628,0.018815,-1.213214,-1.159540,-0.996044,0.182014,-1.258197,-0.010906,1.220376,0.620080,-0.203400,-0.059780,-1.112165,0.369880,0.242988,-1.455687,0.204596,0.236298,-0.208656,-0.818601,-0.272065,-0.545855,-1.291390       },
	{1.241292,1.495336,-0.221428,0.508897,-1.547736,-0.734109,-0.061785,-0.916700,1.748294,0.611358,0.124472,-1.765470,-0.813156,-0.226672,-0.243316,-0.958662,-0.359826,-0.178670,-1.854960,0.482820,-0.237415,-0.223485,-0.792812,-0.008800,-0.113839,-1.161303,0.557975,-1.196415,1.276102,-0.542851,-0.767608,-2.038022},
	{-0.837418,1.807693,0.672552,-0.414382,0.019059,0.625417,-0.282033,0.874877,-0.516302,-1.089866,0.127574,-0.139527,-1.557512,0.424912,-0.160774,1.315239,-0.766228,-0.141937,-1.144274,0.541940,-0.060365,0.011580,-0.426025,-0.869334,0.332105,-0.223230,0.185918,0.075560,0.481256,0.080554,-0.188178,-1.311193      },
	{-0.088724,1.512770,0.573708,-0.541004,0.101177,0.994552,0.018713,0.255672,-0.711177,1.103842,0.749876,-0.690178,-0.616114,-0.875481,1.383399,-1.464260,-1.290574,-1.136988,-1.816337,-2.059307,-1.577350,-0.180910,2.633003,-0.873854,0.462649,0.571720,-0.576855,-0.378128,-0.187443,0.196720,0.362153,-1.787854     }
};

const float w3list[L2][L3] = {
	{0.220459,-1.450177,-0.033649,0.819369  },
	{-0.777355,1.297096,-0.529859,-0.287252 },
	{-0.086331,0.333919,0.300510,0.937992   },
	{-0.467214,1.948441,-0.308745,-2.027256 },
	{0.230228,0.148821,3.292694,-0.502375   },
	{0.936831,0.422379,-1.214615,-0.363353  },
	{-1.016375,0.816155,-2.642065,-0.999590 },
	{-0.684297,-1.378620,-0.116662,-0.500927},
	{1.304927,-1.170061,0.427337,-0.486877  },
	{-0.939968,0.193671,-0.130467,1.636411  },
	{-1.247317,0.455548,0.787487,1.054879   },
	{1.402895,-0.340315,-0.766243,0.791061  },
	{-0.568084,-1.686438,1.795107,-0.517076 },
	{1.385358,-0.487561,0.953825,-0.412738  },
	{1.254566,0.981136,2.565204,0.485501    },
	{-1.631963,-1.982758,0.719625,0.330677  },
	{-0.387987,1.614368,-1.762891,-0.299237 },
	{-0.281605,-0.491334,0.106211,0.611044  },
	{0.448229,0.811051,-0.050493,-1.031785  },
	{0.582335,0.844499,-0.384941,-1.355083  },
	{0.630688,0.317111,0.009540,0.856830    },
	{1.801986,-0.995239,3.211848,-0.166101  },
	{1.776636,-0.334089,-0.228534,-0.081092 },
	{-1.727157,0.443460,-0.704759,0.532492  },
	{0.458841,0.606909,-1.116879,-0.420529  },
	{-0.408224,0.915915,0.019783,-0.965955  },
	{-0.003139,-1.109276,1.199397,-0.916933 },
	{-0.325098,-0.655460,1.040301,-0.846842 },
	{-0.020110,1.048323,1.384784,0.287673   },
	{0.354245,0.498613,-0.243211,-0.137261  },
	{0.523465,-1.265604,0.480674,3.003123   },
	{-0.151272,-0.724395,0.038790,-0.119819 }

};

const float bias1[L1] = {
	2.052294,0.985309,-0.372840,-1.486236,-0.111661,-1.959615,1.060701,0.791298,1.448645,-0.556655,0.805564,1.384041,-0.435665,-0.733842,1.348113,0.145476,0.425298,-0.088040,-1.248474,1.104597,-2.029386,0.997976,-0.279238,-0.187632,-0.532541,0.526850,0.408745,1.611498,-0.184072,-0.182061,-0.353795,0.103931,-0.448981,1.155266,1.370400,-1.922386,-1.288861,-1.018784,0.661616,-0.892039,0.551889,1.371330,0.770885,-1.044818,-1.199904,-2.668061,0.490012,-1.255039,0.042394,0.230788,-1.309774,0.943393,-1.035967,-0.594156,-1.182276,0.049040,-0.664644,2.270059,-0.643594,0.186374,-0.280315,0.886659,0.003909,-1.461771
};

const float bias2[L2] = {
    1.123284,2.231484,-0.259203,0.419704,0.364720,-0.498288,0.853370,0.669865,1.457492,0.186719,3.006052,0.071143,-0.215497,0.029323,-0.088986,0.124394,0.064533,-0.229494,-1.048777,0.169538,-0.482387,-0.283051,-1.247298,0.128314,0.447886,-0.697544,0.165488,-0.336283,-0.165727,-0.674838,-0.660717,-1.285744
};

const float bias3[L3] = {
    0.820849,-1.007497,-0.667793,0.048303
};
