// 4 - 128 - 2
const float w1list[L0][L1] = {
    {0.177426,-0.401781,-1.630198,0.462782,-0.907298,0.051945,0.729091,0.128983,1.139401,-1.234826,0.402342,-0.684810,-0.870797,-0.578850,-0.311553,0.056165,-1.165150,0.900827,0.465662,-1.536244,1.488252,1.895889,1.178780,-0.179925,-1.070753,1.054452,-0.403177,1.222445,0.208275,0.976639,0.356366,0.706573    },
	{0.010500,1.785871,0.126912,0.401989,1.883151,-1.347759,-1.270485,0.969397,-1.173123,1.943621,-0.413619,-0.747455,1.922942,1.480515,1.867559,0.906045,-0.861226,1.910065,-0.268003,0.802456,0.947252,-0.155010,0.614079,0.922207,0.376426,-1.099401,0.298238,1.326386,-0.694568,-0.149635,-0.435154,1.849264     },
	{0.672295,0.407462,-0.769916,0.539249,-0.674333,0.031831,-0.635846,0.676433,0.576591,-0.208299,0.396007,-1.093062,-1.491258,0.439392,0.166673,0.635031,2.383145,0.944479,-0.912822,1.117016,-1.315907,-0.461585,-0.068242,1.713343,-0.744755,-0.826439,-0.098453,-0.663478,1.126636,-1.079931,-1.147469,-0.437820},
	{-0.498032,1.929532,0.949421,0.087551,-1.225435,0.844363,-1.000215,-1.544771,1.188030,0.316943,0.920859,0.318728,0.856831,-0.651026,-1.034243,0.681594,-0.803410,-0.689550,-0.455532,0.017479,-0.353994,-1.374951,-0.643618,-2.223403,0.625231,-1.602058,-1.104383,0.052165,-0.739563,1.543015,-1.292857,0.267051}
};

const float w2list[L1][L2] = {
	{-1.540797,0.063262 },
	{0.156507,0.232181  },
	{-0.597316,-0.237922},
	{-1.424061,-0.493320},
	{-0.542861,0.416050 },
	{-1.156182,0.781198 },
	{1.494485,-2.069985 },
	{0.426259,0.676908  },
	{-0.637437,-0.397272},
	{-0.132881,-0.297791},
	{-0.309013,-1.676004},
	{1.152332,1.079619  },
	{-0.813364,-1.466424},
	{0.521065,-0.575788 },
	{0.141953,-0.319328 },
	{0.691539,0.694749  },
	{-0.725597,-1.383364},
	{-1.582938,0.610379 },
	{-1.188859,-0.506816},
	{-0.596314,-0.052567},
	{-1.936280,0.188779 },
	{0.523891,0.088422  },
	{-0.310886,0.097400 },
	{0.399046,-2.772593 },
	{1.955912,0.390093  },
	{-0.652409,-0.390953},
	{0.493742,-0.116104 },
	{-2.030684,2.064493 },
	{-0.110541,1.020173 },
	{-0.692050,1.536377 },
	{0.286344,0.608844  },
	{-1.045253,1.211145 }

};

const float bias1[L1] = {
    -0.039283,-1.168093,0.523277,-0.171546,0.771791,0.823504,2.163236,1.336528,-0.369182,-0.239379,1.099660,0.655264,0.640132,-1.616956,-0.024326,-0.738031,0.279925,-0.098150,0.910179,0.317218,0.786328,-0.466419,-0.944446,-0.410050,-0.017020,0.379152,2.259309,-0.042257,-0.955945,-0.345982,-0.463596,0.481481
};

const float bias2[L2] = {
    0.689818,1.301846

};
